booster[0]:
0:[marital_status<0.729241133] yes=1,no=2,missing=1
	1:[education<0.658042073] yes=3,no=4,missing=3
		3:[capital_gain<5096] yes=7,no=8,missing=7
			7:leaf=-0.0743859634
			8:leaf=-0.196887165
		4:[capital_gain<5096] yes=9,no=10,missing=9
			9:leaf=0.077862598
			10:leaf=-0.189974949
	2:[capital_gain<7140] yes=5,no=6,missing=5
		5:[education<0.658042073] yes=11,no=12,missing=11
			11:leaf=0.137802035
			12:leaf=0.19045262
		6:[capital_gain<7670] yes=13,no=14,missing=13
			13:leaf=-0.0400000028
			14:leaf=-0.191525429
booster[1]:
0:[relationship<0.71965611] yes=1,no=2,missing=1
	1:[occupation<0.752935529] yes=3,no=4,missing=3
		3:[education<0.658042073] yes=7,no=8,missing=7
			7:leaf=-0.100451581
			8:leaf=-0.00261255726
		4:[education<0.881022811] yes=9,no=10,missing=9
			9:leaf=0.0629247501
			10:leaf=0.148308888
	2:[education<0.51304394] yes=5,no=6,missing=5
		5:[education<0.356223524] yes=11,no=12,missing=11
			11:leaf=-0.0224971175
			12:leaf=0.0860149339
		6:[capital_loss<2219] yes=13,no=14,missing=13
			13:leaf=0.163800135
			14:leaf=-0.04152482
booster[2]:
0:[relationship<0.71965611] yes=1,no=2,missing=1
	1:[education<0.658042073] yes=3,no=4,missing=3
		3:[capital_loss<1783] yes=7,no=8,missing=7
			7:leaf=-0.06789276
			8:leaf=-0.171633899
		4:[occupation<0.752935529] yes=9,no=10,missing=9
			9:leaf=-0.00133167894
			10:leaf=0.0768019706
	2:[education<0.658042073] yes=5,no=6,missing=5
		5:[hours_per_week<44] yes=11,no=12,missing=11
			11:leaf=0.130427748
			12:leaf=0.039709352
		6:[hours_per_week<41] yes=13,no=14,missing=13
			13:leaf=0.161714137
			14:leaf=0.132217452
booster[3]:
0:[marital_status<0.729241133] yes=1,no=2,missing=1
	1:[occupation<0.752935529] yes=3,no=4,missing=3
		3:[education<0.658042073] yes=7,no=8,missing=7
			7:leaf=-0.0823324546
			8:leaf=-0.000146177059
		4:[education<0.881022811] yes=9,no=10,missing=9
			9:leaf=0.0526271872
			10:leaf=0.128981024
	2:[education<0.51304394] yes=5,no=6,missing=5
		5:[hours_per_week<44] yes=11,no=12,missing=11
			11:leaf=0.0845972821
			12:leaf=-0.0128716407
		6:[hours_per_week<43] yes=13,no=14,missing=13
			13:leaf=0.148288324
			14:leaf=0.106965356
booster[4]:
0:[relationship<0.71965611] yes=1,no=2,missing=1
	1:[capital_gain<5096] yes=3,no=4,missing=3
		3:[education<0.817769289] yes=7,no=8,missing=7
			7:leaf=-0.0151232919
			8:leaf=0.0784895346
		4:[age<79] yes=9,no=10,missing=9
			9:leaf=-0.173780054
			10:leaf=-0.043376524
	2:[capital_gain<7074] yes=5,no=6,missing=5
		5:[capital_loss<2366] yes=11,no=12,missing=11
			11:leaf=0.132317647
			12:leaf=-0.167161405
		6:[capital_gain<8297] yes=13,no=14,missing=13
			13:leaf=-0.085622713
			14:leaf=-0.204722524
booster[5]:
0:[marital_status<0.729241133] yes=1,no=2,missing=1
	1:[occupation<0.712424517] yes=3,no=4,missing=3
		3:[age<29] yes=7,no=8,missing=7
			7:leaf=0.0724225715
			8:leaf=-0.0596234202
		4:[capital_loss<1847] yes=9,no=10,missing=9
			9:leaf=0.0527774468
			10:leaf=-0.106582321
	2:[education<0.658042073] yes=5,no=6,missing=5
		5:[age<31] yes=11,no=12,missing=11
			11:leaf=0.126438484
			12:leaf=0.0417062752
		6:[capital_loss<2219] yes=13,no=14,missing=13
			13:leaf=0.131114647
			14:leaf=-0.0277308226
booster[6]:
0:[capital_gain<5120] yes=1,no=2,missing=1
	1:[marital_status<0.729241133] yes=3,no=4,missing=3
		3:[education<0.770847738] yes=7,no=8,missing=7
			7:leaf=-0.0308258682
			8:leaf=0.0560161173
		4:[hours_per_week<44] yes=9,no=10,missing=9
			9:leaf=0.127730265
			10:leaf=0.0813955292
	2:[capital_gain<7074] yes=5,no=6,missing=5
		5:[marital_status<0.720871687] yes=11,no=12,missing=11
			11:leaf=-0.155397549
			12:leaf=0.121737383
		6:[age<23] yes=13,no=14,missing=13
			13:leaf=-0.0495931171
			14:leaf=-0.168209463
booster[7]:
0:[relationship<0.71965611] yes=1,no=2,missing=1
	1:[capital_gain<5096] yes=3,no=4,missing=3
		3:[occupation<0.712424517] yes=7,no=8,missing=7
			7:leaf=-0.0309279058
			8:leaf=0.0506440289
		4:[age<62] yes=9,no=10,missing=9
			9:leaf=-0.154436857
			10:leaf=-0.103593789
	2:[capital_gain<7074] yes=5,no=6,missing=5
		5:[occupation<0.698007107] yes=11,no=12,missing=11
			11:leaf=0.0768069923
			12:leaf=0.122513369
		6:[capital_gain<8297] yes=13,no=14,missing=13
			13:leaf=-0.0640004575
			14:leaf=-0.177178442
booster[8]:
0:[relationship<0.71965611] yes=1,no=2,missing=1
	1:[occupation<0.752935529] yes=3,no=4,missing=3
		3:[capital_loss<1847] yes=7,no=8,missing=7
			7:leaf=-0.0216975268
			8:leaf=-0.145019695
		4:[education<0.92921418] yes=9,no=10,missing=9
			9:leaf=0.0347137004
			10:leaf=0.108118333
	2:[education<0.658042073] yes=5,no=6,missing=5
		5:[hours_per_week<44] yes=11,no=12,missing=11
			11:leaf=0.0810198486
			12:leaf=0.00144482893
		6:[capital_loss<2219] yes=13,no=14,missing=13
			13:leaf=0.114659786
			14:leaf=-0.0613486655
booster[9]:
0:[capital_gain<5120] yes=1,no=2,missing=1
	1:[relationship<0.71965611] yes=3,no=4,missing=3
		3:[capital_loss<1783] yes=7,no=8,missing=7
			7:leaf=0.0273945127
			8:leaf=-0.126980707
		4:[occupation<0.698007107] yes=9,no=10,missing=9
			9:leaf=0.0665446892
			10:leaf=0.114238776
	2:[capital_gain<7074] yes=5,no=6,missing=5
		5:[relationship<0.71965611] yes=11,no=12,missing=11
			11:leaf=-0.140590534
			12:leaf=0.110073224
		6:[age<87] yes=13,no=14,missing=13
			13:leaf=-0.150308907
			14:leaf=-0.031987749
booster[10]:
0:[marital_status<0.729241133] yes=1,no=2,missing=1
	1:[capital_gain<5096] yes=3,no=4,missing=3
		3:[education<0.817769289] yes=7,no=8,missing=7
			7:leaf=-0.0152927581
			8:leaf=0.0542150214
		4:[age<85] yes=9,no=10,missing=9
			9:leaf=-0.138045058
			10:leaf=0.0186140966
	2:[capital_gain<4669] yes=5,no=6,missing=5
		5:[hours_per_week<48] yes=11,no=12,missing=11
			11:leaf=0.107921138
			12:leaf=0.0527417026
		6:[capital_gain<8297] yes=13,no=14,missing=13
			13:leaf=-0.0499452241
			14:leaf=-0.160956621
booster[11]:
0:[relationship<0.71965611] yes=1,no=2,missing=1
	1:[education<0.658042073] yes=3,no=4,missing=3
		3:[hours_per_week<32] yes=7,no=8,missing=7
			7:leaf=0.058110334
			8:leaf=-0.0543566011
		4:[occupation<0.870321155] yes=9,no=10,missing=9
			9:leaf=0.0131088244
			10:leaf=0.079416655
	2:[education<0.658042073] yes=5,no=6,missing=5
		5:[hours_per_week<44] yes=11,no=12,missing=11
			11:leaf=0.0662765503
			12:leaf=-0.00679222587
		6:[hours_per_week<46] yes=13,no=14,missing=13
			13:leaf=0.107661478
			14:leaf=0.0667741597
booster[12]:
0:[capital_gain<5120] yes=1,no=2,missing=1
	1:[relationship<0.71965611] yes=3,no=4,missing=3
		3:[education<0.658042073] yes=7,no=8,missing=7
			7:leaf=-0.0358667932
			8:leaf=0.0343825258
		4:[hours_per_week<43] yes=9,no=10,missing=9
			9:leaf=0.101385191
			10:leaf=0.0484255999
	2:[capital_gain<7074] yes=5,no=6,missing=5
		5:[marital_status<0.720871687] yes=11,no=12,missing=11
			11:leaf=-0.121659078
			12:leaf=0.114997916
		6:[age<61] yes=13,no=14,missing=13
			13:leaf=-0.138886437
			14:leaf=-0.102440476
booster[13]:
0:[age<34] yes=1,no=2,missing=1
	1:[capital_gain<5120] yes=3,no=4,missing=3
		3:[age<29] yes=7,no=8,missing=7
			7:leaf=0.109062038
			8:leaf=0.0642072558
		4:[hours_per_week<27] yes=9,no=10,missing=9
			9:leaf=0.0514884368
			10:leaf=-0.12255571
	2:[capital_gain<7074] yes=5,no=6,missing=5
		5:[occupation<0.784263313] yes=11,no=12,missing=11
			11:leaf=-0.00810630061
			12:leaf=0.0606677495
		6:[age<62] yes=13,no=14,missing=13
			13:leaf=-0.1333801
			14:leaf=-0.0883702189
booster[14]:
0:[age<32] yes=1,no=2,missing=1
	1:[capital_gain<5120] yes=3,no=4,missing=3
		3:[age<27] yes=7,no=8,missing=7
			7:leaf=0.11103189
			8:leaf=0.0701219961
		4:[hours_per_week<31] yes=9,no=10,missing=9
			9:leaf=0.0509958863
			10:leaf=-0.121006742
	2:[occupation<0.752935529] yes=5,no=6,missing=5
		5:[capital_gain<7074] yes=11,no=12,missing=11
			11:leaf=-0.0162554495
			12:leaf=-0.124912515
		6:[marital_status<0.729241133] yes=13,no=14,missing=13
			13:leaf=0.0178685077
			14:leaf=0.0893019661
booster[15]:
0:[relationship<0.71965611] yes=1,no=2,missing=1
	1:[occupation<0.870321155] yes=3,no=4,missing=3
		3:[capital_loss<1847] yes=7,no=8,missing=7
			7:leaf=-0.00571962539
			8:leaf=-0.120870523
		4:[capital_loss<1795] yes=9,no=10,missing=9
			9:leaf=0.064872928
			10:leaf=-0.098886475
	2:[education<0.658042073] yes=5,no=6,missing=5
		5:[age<28] yes=11,no=12,missing=11
			11:leaf=0.102438055
			12:leaf=0.000545178715
		6:[capital_loss<2219] yes=13,no=14,missing=13
			13:leaf=0.091523841
			14:leaf=-0.103072003
booster[16]:
0:[age<30] yes=1,no=2,missing=1
	1:[capital_gain<7074] yes=3,no=4,missing=3
		3:[age<25] yes=7,no=8,missing=7
			7:leaf=0.112052642
			8:leaf=0.0776693225
		4:[hours_per_week<34] yes=9,no=10,missing=9
			9:leaf=0.0534891151
			10:leaf=-0.13200523
	2:[capital_gain<5096] yes=5,no=6,missing=5
		5:[occupation<0.752935529] yes=11,no=12,missing=11
			11:leaf=-0.010932575
			12:leaf=0.0461255983
		6:[capital_gain<7074] yes=13,no=14,missing=13
			13:leaf=-0.0543452092
			14:leaf=-0.123830475
booster[17]:
0:[relationship<0.71965611] yes=1,no=2,missing=1
	1:[capital_gain<5096] yes=3,no=4,missing=3
		3:[education_num<8] yes=7,no=8,missing=7
			7:leaf=0.08770632
			8:leaf=-0.00347441179
		4:[age<62] yes=9,no=10,missing=9
			9:leaf=-0.123708092
			10:leaf=-0.0555783696
	2:[capital_gain<4669] yes=5,no=6,missing=5
		5:[occupation<0.698007107] yes=11,no=12,missing=11
			11:leaf=0.0379371308
			12:leaf=0.0934688672
		6:[capital_gain<4827] yes=13,no=14,missing=13
			13:leaf=-0.330149919
			14:leaf=-0.0999025926
booster[18]:
0:[marital_status<0.729241133] yes=1,no=2,missing=1
	1:[education<0.817769289] yes=3,no=4,missing=3
		3:[age<36] yes=7,no=8,missing=7
			7:leaf=0.0168087445
			8:leaf=-0.0404652506
		4:[education<0.92921418] yes=9,no=10,missing=9
			9:leaf=0.0198916402
			10:leaf=0.0808677599
	2:[hours_per_week<43] yes=5,no=6,missing=5
		5:[education<0.356223524] yes=11,no=12,missing=11
			11:leaf=-0.0796101019
			12:leaf=0.0879460201
		6:[age<28] yes=13,no=14,missing=13
			13:leaf=0.0908026621
			14:leaf=0.00400514714
booster[19]:
0:[relationship<0.71965611] yes=1,no=2,missing=1
	1:[capital_gain<5096] yes=3,no=4,missing=3
		3:[capital_loss<1783] yes=7,no=8,missing=7
			7:leaf=0.0111957081
			8:leaf=-0.108265989
		4:[education_num<6] yes=9,no=10,missing=9
			9:leaf=-0.0255872291
			10:leaf=-0.114936069
	2:[capital_gain<4669] yes=5,no=6,missing=5
		5:[education<0.658042073] yes=11,no=12,missing=11
			11:leaf=0.0240886118
			12:leaf=0.0846413299
		6:[capital_gain<4827] yes=13,no=14,missing=13
			13:leaf=-0.277582467
			14:leaf=-0.0891087949
booster[20]:
0:[marital_status<0.729241133] yes=1,no=2,missing=1
	1:[occupation<0.88044405] yes=3,no=4,missing=3
		3:[hours_per_week<35] yes=7,no=8,missing=7
			7:leaf=0.0706682652
			8:leaf=-0.0146311512
		4:[capital_loss<1795] yes=9,no=10,missing=9
			9:leaf=0.0732769519
			10:leaf=-0.091166757
	2:[education_num<13] yes=5,no=6,missing=5
		5:[capital_loss<2219] yes=11,no=12,missing=11
			11:leaf=0.0819658935
			12:leaf=-0.113900326
		6:[education_num<15] yes=13,no=14,missing=13
			13:leaf=0.0263754372
			14:leaf=-0.0854473636
booster[21]:
0:[age<33] yes=1,no=2,missing=1
	1:[age<28] yes=3,no=4,missing=3
		3:[hours_per_week<42] yes=7,no=8,missing=7
			7:leaf=0.100572802
			8:leaf=0.060961362
		4:[education_num<12] yes=9,no=10,missing=9
			9:leaf=0.0632386357
			10:leaf=0.012700187
	2:[hours_per_week<42] yes=5,no=6,missing=5
		5:[education_num<10] yes=11,no=12,missing=11
			11:leaf=0.0455268137
			12:leaf=-0.00121513521
		6:[occupation<0.88044405] yes=13,no=14,missing=13
			13:leaf=-0.0388182178
			14:leaf=0.0473472141
booster[22]:
0:[age<34] yes=1,no=2,missing=1
	1:[age<27] yes=3,no=4,missing=3
		3:[capital_loss<1806] yes=7,no=8,missing=7
			7:leaf=0.0925525501
			8:leaf=-0.0365461297
		4:[education_num<13] yes=9,no=10,missing=9
			9:leaf=0.0557647459
			10:leaf=0.00188691227
	2:[occupation<0.870321155] yes=5,no=6,missing=5
		5:[capital_loss<1821] yes=11,no=12,missing=11
			11:leaf=-0.00910155289
			12:leaf=-0.101042725
		6:[relationship<0.71965611] yes=13,no=14,missing=13
			13:leaf=0.0351767205
			14:leaf=0.0886841044
booster[23]:
0:[age<30] yes=1,no=2,missing=1
	1:[capital_gain<7074] yes=3,no=4,missing=3
		3:[marital_status<0.729241133] yes=7,no=8,missing=7
			7:leaf=0.05207932
			8:leaf=0.0952528641
		4:[hours_per_week<34] yes=9,no=10,missing=9
			9:leaf=0.0313299112
			10:leaf=-0.128085688
	2:[capital_gain<7074] yes=5,no=6,missing=5
		5:[capital_loss<1749] yes=11,no=12,missing=11
			11:leaf=0.0121220043
			12:leaf=-0.0936464593
		6:[age<61] yes=13,no=14,missing=13
			13:leaf=-0.120523117
			14:leaf=-0.0721598789
booster[24]:
0:[capital_gain<7074] yes=1,no=2,missing=1
	1:[marital_status<0.729241133] yes=3,no=4,missing=3
		3:[education_num<9] yes=7,no=8,missing=7
			7:leaf=0.0710698441
			8:leaf=-0.00363446027
		4:[hours_per_week<45] yes=9,no=10,missing=9
			9:leaf=0.0757323653
			10:leaf=0.00922931544
	2:[fnlwgt<24873] yes=5,no=6,missing=5
		5:leaf=0.00395053206
		6:[education_num<5] yes=11,no=12,missing=11
			11:leaf=-0.0209340733
			12:leaf=-0.113894895
booster[25]:
0:[age<29] yes=1,no=2,missing=1
	1:[capital_gain<7074] yes=3,no=4,missing=3
		3:[age<25] yes=7,no=8,missing=7
			7:leaf=0.0986071229
			8:leaf=0.0577940904
		4:[relationship<0.96053946] yes=9,no=10,missing=9
			9:leaf=-0.117327809
			10:leaf=-0.031206876
	2:[capital_gain<7074] yes=5,no=6,missing=5
		5:[hours_per_week<35] yes=11,no=12,missing=11
			11:leaf=0.0743187964
			12:leaf=-0.000528453558
		6:[age<62] yes=13,no=14,missing=13
			13:leaf=-0.114512898
			14:leaf=-0.0608845241
booster[26]:
0:[age<30] yes=1,no=2,missing=1
	1:[age<25] yes=3,no=4,missing=3
		3:[capital_gain<4244] yes=7,no=8,missing=7
			7:leaf=0.0990553424
			8:leaf=-0.0385126211
		4:[occupation<0.784263313] yes=9,no=10,missing=9
			9:leaf=0.0302789211
			10:leaf=0.0754148364
	2:[occupation<0.870321155] yes=5,no=6,missing=5
		5:[hours_per_week<35] yes=11,no=12,missing=11
			11:leaf=0.0619453192
			12:leaf=-0.0151357371
		6:[capital_gain<4244] yes=13,no=14,missing=13
			13:leaf=0.0548358932
			14:leaf=-0.087639384
booster[27]:
0:[age<37] yes=1,no=2,missing=1
	1:[capital_gain<5120] yes=3,no=4,missing=3
		3:[hours_per_week<41] yes=7,no=8,missing=7
			7:leaf=0.065077655
			8:leaf=0.0165075716
		4:[hours_per_week<27] yes=9,no=10,missing=9
			9:leaf=0.0277797822
			10:leaf=-0.101204947
	2:[hours_per_week<35] yes=5,no=6,missing=5
		5:[capital_gain<4148] yes=11,no=12,missing=11
			11:leaf=0.0676035732
			12:leaf=-0.083895117
		6:[education<0.92921418] yes=13,no=14,missing=13
			13:leaf=-0.0213681515
			14:leaf=0.0534902625
booster[28]:
0:[relationship<0.915993154] yes=1,no=2,missing=1
	1:[capital_gain<5096] yes=3,no=4,missing=3
		3:[capital_loss<1847] yes=7,no=8,missing=7
			7:leaf=0.0103910044
			8:leaf=-0.0876950473
		4:[age<61] yes=9,no=10,missing=9
			9:leaf=-0.109611191
			10:leaf=-0.0472082943
	2:[capital_gain<4669] yes=5,no=6,missing=5
		5:[marital_status<0.917541862] yes=11,no=12,missing=11
			11:leaf=0.0480074361
			12:leaf=0.0926501378
		6:[capital_gain<4998] yes=13,no=14,missing=13
			13:leaf=-0.242642522
			14:leaf=-0.0321046822
booster[29]:
0:[relationship<0.915993154] yes=1,no=2,missing=1
	1:[capital_gain<5096] yes=3,no=4,missing=3
		3:[education<0.817769289] yes=7,no=8,missing=7
			7:leaf=-0.0125615615
			8:leaf=0.0270692203
		4:[capital_gain<7074] yes=9,no=10,missing=9
			9:leaf=-0.0608826987
			10:leaf=-0.105380885
	2:[capital_gain<4669] yes=5,no=6,missing=5
		5:[capital_loss<2166] yes=11,no=12,missing=11
			11:leaf=0.0715776309
			12:leaf=-0.136822864
		6:[capital_gain<5195] yes=13,no=14,missing=13
			13:leaf=-0.188360035
			14:leaf=-0.0205732863
booster[30]:
0:[age<36] yes=1,no=2,missing=1
	1:[education_num<12] yes=3,no=4,missing=3
		3:[relationship<0.71965611] yes=7,no=8,missing=7
			7:leaf=0.0395625383
			8:leaf=0.0823030397
		4:[hours_per_week<42] yes=9,no=10,missing=9
			9:leaf=0.0337126255
			10:leaf=-0.024781106
	2:[hours_per_week<42] yes=5,no=6,missing=5
		5:[occupation<0.88044405] yes=11,no=12,missing=11
			11:leaf=0.00093952188
			12:leaf=0.0633124411
		6:[sex<0.786973238] yes=13,no=14,missing=13
			13:leaf=-0.040450003
			14:leaf=0.0139770387
booster[31]:
0:[relationship<0.915993154] yes=1,no=2,missing=1
	1:[capital_gain<5096] yes=3,no=4,missing=3
		3:[capital_loss<1794] yes=7,no=8,missing=7
			7:leaf=0.00773957837
			8:leaf=-0.0790788382
		4:[capital_gain<7074] yes=9,no=10,missing=9
			9:leaf=-0.0577830486
			10:leaf=-0.105059698
	2:[marital_status<0.917541862] yes=5,no=6,missing=5
		5:[hours_per_week<50] yes=11,no=12,missing=11
			11:leaf=0.0474434868
			12:leaf=-0.0339520983
		6:[education<0.356223524] yes=13,no=14,missing=13
			13:leaf=-0.0612831973
			14:leaf=0.0854220986
booster[32]:
0:[age<28] yes=1,no=2,missing=1
	1:[hours_per_week<44] yes=3,no=4,missing=3
		3:[capital_loss<1882] yes=7,no=8,missing=7
			7:leaf=0.0849864259
			8:leaf=-0.0695552155
		4:[age<24] yes=9,no=10,missing=9
			9:leaf=0.0767591074
			10:leaf=0.0208710898
	2:[occupation<0.88044405] yes=5,no=6,missing=5
		5:[capital_gain<7074] yes=11,no=12,missing=11
			11:leaf=-0.00323391822
			12:leaf=-0.101628222
		6:[capital_gain<4244] yes=13,no=14,missing=13
			13:leaf=0.0601010993
			14:leaf=-0.0458227955
booster[33]:
0:[age<28] yes=1,no=2,missing=1
	1:[age<24] yes=3,no=4,missing=3
		3:[capital_gain<6633] yes=7,no=8,missing=7
			7:leaf=0.0958099365
			8:leaf=-0.0369728692
		4:[relationship<0.529179811] yes=9,no=10,missing=9
			9:leaf=-0.0319456272
			10:leaf=0.0539449826
	2:[education<0.658042073] yes=5,no=6,missing=5
		5:[hours_per_week<32] yes=11,no=12,missing=11
			11:leaf=0.0376216061
			12:leaf=-0.0321773887
		6:[marital_status<0.729241133] yes=13,no=14,missing=13
			13:leaf=0.000565321767
			14:leaf=0.0485695414
booster[34]:
0:[occupation<0.712424517] yes=1,no=2,missing=1
	1:[education<0.51304394] yes=3,no=4,missing=3
		3:[age<33] yes=7,no=8,missing=7
			7:leaf=0.0174337123
			8:leaf=-0.0571719669
		4:[hours_per_week<35] yes=9,no=10,missing=9
			9:leaf=0.0538727604
			10:leaf=-0.012296048
	2:[marital_status<0.729241133] yes=5,no=6,missing=5
		5:[hours_per_week<34] yes=11,no=12,missing=11
			11:leaf=0.0701512843
			12:leaf=0.00342960842
		6:[hours_per_week<41] yes=13,no=14,missing=13
			13:leaf=0.0775372237
			14:leaf=0.0131313577
booster[35]:
0:[occupation<0.88044405] yes=1,no=2,missing=1
	1:[age<37] yes=3,no=4,missing=3
		3:[age<25] yes=7,no=8,missing=7
			7:leaf=0.0799656287
			8:leaf=0.0144521063
		4:[age<62] yes=9,no=10,missing=9
			9:leaf=-0.0190775041
			10:leaf=0.0390898138
	2:[capital_loss<1806] yes=5,no=6,missing=5
		5:[marital_status<0.729241133] yes=11,no=12,missing=11
			11:leaf=0.0445972309
			12:leaf=0.0807954669
		6:[capital_loss<1979] yes=13,no=14,missing=13
			13:leaf=-0.151886761
			14:leaf=-0.0250042919
booster[36]:
0:[hours_per_week<38] yes=1,no=2,missing=1
	1:[capital_gain<7566] yes=3,no=4,missing=3
		3:[capital_loss<1821] yes=7,no=8,missing=7
			7:leaf=0.0590066202
			8:leaf=-0.0514339767
		4:[capital_gain<8683] yes=9,no=10,missing=9
			9:leaf=-0.0254024323
			10:leaf=-0.0967375264
	2:[workclass<0.657184601] yes=5,no=6,missing=5
		5:[marital_status<0.940908313] yes=11,no=12,missing=11
			11:leaf=-0.0598276369
			12:leaf=0.00482908729
		6:[capital_gain<7074] yes=13,no=14,missing=13
			13:leaf=0.00577889849
			14:leaf=-0.0984022841
booster[37]:
0:[age<28] yes=1,no=2,missing=1
	1:[age<24] yes=3,no=4,missing=3
		3:[capital_gain<6170] yes=7,no=8,missing=7
			7:leaf=0.090524599
			8:leaf=-0.0378677025
		4:[hours_per_week<44] yes=9,no=10,missing=9
			9:leaf=0.0583901405
			10:leaf=0.0161322858
	2:[capital_gain<7074] yes=5,no=6,missing=5
		5:[hours_per_week<42] yes=11,no=12,missing=11
			11:leaf=0.0144438073
			12:leaf=-0.0173731595
		6:[age<61] yes=13,no=14,missing=13
			13:leaf=-0.102472924
			14:leaf=-0.0326286964
booster[38]:
0:[capital_loss<1749] yes=1,no=2,missing=1
	1:[relationship<0.915993154] yes=3,no=4,missing=3
		3:[capital_gain<5096] yes=7,no=8,missing=7
			7:leaf=0.00513494154
			8:leaf=-0.0914381072
		4:[capital_gain<4669] yes=9,no=10,missing=9
			9:leaf=0.0609735362
			10:leaf=-0.0486334972
	2:[capital_loss<1979] yes=5,no=6,missing=5
		5:[marital_status<0.720871687] yes=11,no=12,missing=11
			11:leaf=-0.137109831
			12:leaf=0.0847511366
		6:[capital_loss<2191] yes=13,no=14,missing=13
			13:leaf=0.17910406
			14:leaf=-0.0924869403
booster[39]:
0:[age<36] yes=1,no=2,missing=1
	1:[age<25] yes=3,no=4,missing=3
		3:[hours_per_week<46] yes=7,no=8,missing=7
			7:leaf=0.0903558135
			8:leaf=0.0232974272
		4:[education<0.658042073] yes=9,no=10,missing=9
			9:leaf=-0.00767256925
			10:leaf=0.0340171009
	2:[education<0.93306154] yes=5,no=6,missing=5
		5:[capital_loss<1882] yes=11,no=12,missing=11
			11:leaf=-0.00931808911
			12:leaf=-0.0890299231
		6:[capital_gain<5096] yes=13,no=14,missing=13
			13:leaf=0.0641796291
			14:leaf=-0.104257539
booster[40]:
0:[hours_per_week<42] yes=1,no=2,missing=1
	1:[relationship<0.71965611] yes=3,no=4,missing=3
		3:[education_num<8] yes=7,no=8,missing=7
			7:leaf=0.0627125278
			8:leaf=-0.000480224378
		4:[occupation<0.698007107] yes=9,no=10,missing=9
			9:leaf=0.00915286317
			10:leaf=0.0693446323
	2:[fnlwgt<114153] yes=5,no=6,missing=5
		5:[education_num<15] yes=11,no=12,missing=11
			11:leaf=0.0149073033
			12:leaf=-0.0636803508
		6:[age<41] yes=13,no=14,missing=13
			13:leaf=-0.01038964
			14:leaf=-0.0388946608
booster[41]:
0:[occupation<0.712424517] yes=1,no=2,missing=1
	1:[capital_loss<1749] yes=3,no=4,missing=3
		3:[capital_loss<1578] yes=7,no=8,missing=7
			7:leaf=-0.0125601562
			8:leaf=0.161118165
		4:[capital_loss<2385] yes=9,no=10,missing=9
			9:leaf=-0.0756940022
			10:leaf=-0.141014069
	2:[marital_status<0.729241133] yes=5,no=6,missing=5
		5:[native_country<0.774720967] yes=11,no=12,missing=11
			11:leaf=0.000613687444
			12:leaf=0.0886545926
		6:[occupation<0.828573823] yes=13,no=14,missing=13
			13:leaf=0.0238840319
			14:leaf=0.0731894597
booster[42]:
0:[age<34] yes=1,no=2,missing=1
	1:[hours_per_week<49] yes=3,no=4,missing=3
		3:[relationship<0.71965611] yes=7,no=8,missing=7
			7:leaf=0.0251315776
			8:leaf=0.0684584379
		4:[relationship<0.973544419] yes=9,no=10,missing=9
			9:leaf=-0.00666182209
			10:leaf=0.0648826063
	2:[education<0.51304394] yes=5,no=6,missing=5
		5:[sex<0.786973238] yes=11,no=12,missing=11
			11:leaf=-0.0598735102
			12:leaf=-0.00596273225
		6:[hours_per_week<39] yes=13,no=14,missing=13
			13:leaf=0.0375793539
			14:leaf=-0.00655466272
booster[43]:
0:[capital_gain<7074] yes=1,no=2,missing=1
	1:[capital_loss<1847] yes=3,no=4,missing=3
		3:[capital_loss<1569] yes=7,no=8,missing=7
			7:leaf=0.00477402564
			8:leaf=0.141437262
		4:[capital_loss<1979] yes=9,no=10,missing=9
			9:leaf=-0.11178527
			10:leaf=0.0158200599
	2:[education_num<7] yes=5,no=6,missing=5
		5:leaf=-0.000766646757
		6:[fnlwgt<32485] yes=11,no=12,missing=11
			11:leaf=-0.00390992826
			12:leaf=-0.0953347236
booster[44]:
0:[occupation<0.870321155] yes=1,no=2,missing=1
	1:[marital_status<0.729241133] yes=3,no=4,missing=3
		3:[age<62] yes=7,no=8,missing=7
			7:leaf=-0.015438877
			8:leaf=0.0456652902
		4:[sex<0.786973238] yes=9,no=10,missing=9
			9:leaf=-0.00927002169
			10:leaf=0.0461158566
	2:[relationship<0.71965611] yes=5,no=6,missing=5
		5:[native_country<0.804460406] yes=11,no=12,missing=11
			11:leaf=0.019283846
			12:leaf=0.0853535756
		6:[capital_loss<2219] yes=13,no=14,missing=13
			13:leaf=0.075546965
			14:leaf=-0.129820868
booster[45]:
0:[capital_gain<7074] yes=1,no=2,missing=1
	1:[age<25] yes=3,no=4,missing=3
		3:[hours_per_week<46] yes=7,no=8,missing=7
			7:leaf=0.0867222771
			8:leaf=0.0182099305
		4:[native_country<0.804460406] yes=9,no=10,missing=9
			9:leaf=-0.000358410383
			10:leaf=0.0755936354
	2:[age<61] yes=5,no=6,missing=5
		5:[hours_per_week<25] yes=11,no=12,missing=11
			11:leaf=-0.00952454656
			12:leaf=-0.103497528
		6:[capital_gain<10586] yes=13,no=14,missing=13
			13:leaf=0.0408398807
			14:leaf=-0.0654861256
booster[46]:
0:[capital_loss<1749] yes=1,no=2,missing=1
	1:[capital_loss<1569] yes=3,no=4,missing=3
		3:[capital_loss<1552] yes=7,no=8,missing=7
			7:leaf=0.00433627376
			8:leaf=-0.392008454
		4:leaf=0.140570238
	2:[capital_loss<1979] yes=5,no=6,missing=5
		5:[marital_status<0.720871687] yes=9,no=10,missing=9
			9:leaf=-0.124762833
			10:leaf=0.0967116058
		6:[capital_loss<2191] yes=11,no=12,missing=11
			11:leaf=0.173905566
			12:leaf=-0.0819405243
booster[47]:
0:[relationship<0.915993154] yes=1,no=2,missing=1
	1:[education_num<9] yes=3,no=4,missing=3
		3:[age<37] yes=7,no=8,missing=7
			7:leaf=0.0705295652
			8:leaf=0.0320208371
		4:[relationship<0.529179811] yes=9,no=10,missing=9
			9:leaf=-0.0455441698
			10:leaf=-0.0029072715
	2:[age<42] yes=5,no=6,missing=5
		5:[marital_status<0.554130554] yes=11,no=12,missing=11
			11:leaf=-0.0355419107
			12:leaf=0.0679366291
		6:[sex<0.786973238] yes=13,no=14,missing=13
			13:leaf=-0.0648508221
			14:leaf=0.0367347263
booster[48]:
0:[workclass<0.657184601] yes=1,no=2,missing=1
	1:[age<45] yes=3,no=4,missing=3
		3:[fnlwgt<148521] yes=7,no=8,missing=7
			7:leaf=0.008938591
			8:leaf=-0.045832675
		4:[sex<0.786973238] yes=9,no=10,missing=9
			9:leaf=-0.0716244206
			10:leaf=-0.0078766495
	2:[capital_gain<7074] yes=5,no=6,missing=5
		5:[education_num<10] yes=11,no=12,missing=11
			11:leaf=0.0243099574
			12:leaf=-0.00313508324
		6:[age<61] yes=13,no=14,missing=13
			13:leaf=-0.0967056379
			14:leaf=-0.0342503823
booster[49]:
0:[education<0.770847738] yes=1,no=2,missing=1
	1:[occupation<0.535411239] yes=3,no=4,missing=3
		3:[hours_per_week<50] yes=7,no=8,missing=7
			7:leaf=-0.0190537442
			8:leaf=-0.068516165
		4:[education<0.356223524] yes=9,no=10,missing=9
			9:leaf=-0.0525344275
			10:leaf=0.00134548673
	2:[marital_status<0.917541862] yes=5,no=6,missing=5
		5:[workclass<0.657184601] yes=11,no=12,missing=11
			11:leaf=-0.044122573
			12:leaf=0.0130313663
		6:[capital_gain<8029] yes=13,no=14,missing=13
			13:leaf=0.0676951185
			14:leaf=-0.0772190243
booster[50]:
0:[occupation<0.88044405] yes=1,no=2,missing=1
	1:[capital_gain<7074] yes=3,no=4,missing=3
		3:[age<37] yes=7,no=8,missing=7
			7:leaf=0.0151428329
			8:leaf=-0.00954031199
		4:[age<62] yes=9,no=10,missing=9
			9:leaf=-0.0989666954
			10:leaf=-0.0100746695
	2:[hours_per_week<56] yes=5,no=6,missing=5
		5:[capital_gain<4244] yes=11,no=12,missing=11
			11:leaf=0.0526917167
			12:leaf=-0.0347577594
		6:[hours_per_week<63] yes=13,no=14,missing=13
			13:leaf=-0.0448507182
			14:leaf=0.0290173981
booster[51]:
0:[occupation<0.88044405] yes=1,no=2,missing=1
	1:[age<25] yes=3,no=4,missing=3
		3:[capital_loss<1825] yes=7,no=8,missing=7
			7:leaf=0.0695003793
			8:leaf=-0.0544118173
		4:[workclass<0.657184601] yes=9,no=10,missing=9
			9:leaf=-0.0386823304
			10:leaf=-0.000645531807
	2:[native_country<0.653010011] yes=5,no=6,missing=5
		5:[age<48] yes=11,no=12,missing=11
			11:leaf=-0.112070873
			12:leaf=0.00915392675
		6:[capital_gain<4244] yes=13,no=14,missing=13
			13:leaf=0.0444743223
			14:leaf=-0.0410905778
booster[52]:
0:[hours_per_week<32] yes=1,no=2,missing=1
	1:[capital_loss<1821] yes=3,no=4,missing=3
		3:[age<30] yes=7,no=8,missing=7
			7:leaf=0.0921139345
			8:leaf=0.0430094786
		4:[capital_loss<1990] yes=9,no=10,missing=9
			9:leaf=-0.11979159
			10:leaf=0.00967648905
	2:[age<43] yes=5,no=6,missing=5
		5:[education<0.817769289] yes=11,no=12,missing=11
			11:leaf=-0.00357522373
			12:leaf=0.027853176
		6:[education_num<7] yes=13,no=14,missing=13
			13:leaf=0.0354026519
			14:leaf=-0.0201084036
booster[53]:
0:[marital_status<0.917541862] yes=1,no=2,missing=1
	1:[education_num<8] yes=3,no=4,missing=3
		3:[capital_gain<4226] yes=7,no=8,missing=7
			7:leaf=0.0440959483
			8:leaf=-0.071863994
		4:[workclass<0.657184601] yes=9,no=10,missing=9
			9:leaf=-0.0415584259
			10:leaf=-0.00407154579
	2:[education_num<15] yes=5,no=6,missing=5
		5:[capital_gain<4719] yes=11,no=12,missing=11
			11:leaf=0.0432007574
			12:leaf=-0.0729817525
		6:[age<33] yes=13,no=14,missing=13
			13:leaf=0.0553448983
			14:leaf=-0.114949517
booster[54]:
0:[native_country<0.814116895] yes=1,no=2,missing=1
	1:[age<25] yes=3,no=4,missing=3
		3:[hours_per_week<44] yes=7,no=8,missing=7
			7:leaf=0.0801605508
			8:leaf=0.0204079431
		4:[relationship<0.529179811] yes=9,no=10,missing=9
			9:leaf=-0.0429276563
			10:leaf=-0.00218795799
	2:[capital_gain<5096] yes=5,no=6,missing=5
		5:[education<0.356223524] yes=11,no=12,missing=11
			11:leaf=-0.0109495884
			12:leaf=0.0763197616
		6:leaf=-0.0452029258
booster[55]:
0:[capital_loss<1749] yes=1,no=2,missing=1
	1:[capital_loss<1569] yes=3,no=4,missing=3
		3:[capital_loss<1552] yes=7,no=8,missing=7
			7:leaf=0.00285909255
			8:leaf=-0.331374973
		4:leaf=0.139174372
	2:[capital_loss<1979] yes=5,no=6,missing=5
		5:[relationship<0.71965611] yes=9,no=10,missing=9
			9:leaf=-0.122855298
			10:leaf=0.0770053342
		6:[capital_loss<2191] yes=11,no=12,missing=11
			11:leaf=0.172155395
			12:leaf=-0.0636055693
booster[56]:
0:[hours_per_week<32] yes=1,no=2,missing=1
	1:[relationship<0.529179811] yes=3,no=4,missing=3
		3:[fnlwgt<247703] yes=7,no=8,missing=7
			7:leaf=-0.0661254749
			8:leaf=0.0467471592
		4:[capital_gain<4103] yes=9,no=10,missing=9
			9:leaf=0.0719733164
			10:leaf=-0.0438707583
	2:[capital_gain<7074] yes=5,no=6,missing=5
		5:[marital_status<0.729241133] yes=11,no=12,missing=11
			11:leaf=-0.00784589257
			12:leaf=0.016514577
		6:[age<63] yes=13,no=14,missing=13
			13:leaf=-0.0949342698
			14:leaf=0.0378672779
booster[57]:
0:[hours_per_week<38] yes=1,no=2,missing=1
	1:[education<0.817769289] yes=3,no=4,missing=3
		3:[fnlwgt<280295] yes=7,no=8,missing=7
			7:leaf=0.0108512873
			8:leaf=0.0647560954
		4:[workclass<0.657184601] yes=9,no=10,missing=9
			9:leaf=-0.0406133458
			10:leaf=0.0634081662
	2:[capital_loss<1749] yes=5,no=6,missing=5
		5:[capital_loss<1569] yes=11,no=12,missing=11
			11:leaf=-0.00199731416
			12:leaf=0.134424582
		6:[capital_loss<1979] yes=13,no=14,missing=13
			13:leaf=-0.0939241126
			14:leaf=0.00771257235
booster[58]:
0:[hours_per_week<35] yes=1,no=2,missing=1
	1:[relationship<0.529179811] yes=3,no=4,missing=3
		3:[occupation<0.720758796] yes=7,no=8,missing=7
			7:leaf=-0.0866011009
			8:leaf=-0.0197330732
		4:[capital_loss<1487] yes=9,no=10,missing=9
			9:leaf=0.0644217208
			10:leaf=-0.023541471
	2:[age<44] yes=5,no=6,missing=5
		5:[relationship<0.529179811] yes=11,no=12,missing=11
			11:leaf=-0.0444758795
			12:leaf=0.00954938959
		6:[sex<0.786973238] yes=13,no=14,missing=13
			13:leaf=-0.0218095202
			14:leaf=0.0161051415
booster[59]:
0:[capital_gain<7074] yes=1,no=2,missing=1
	1:[capital_loss<2385] yes=3,no=4,missing=3
		3:[relationship<0.915993154] yes=7,no=8,missing=7
			7:leaf=-0.00100598566
			8:leaf=0.0352901928
		4:[capital_loss<3344] yes=9,no=10,missing=9
			9:leaf=-0.158752203
			10:leaf=0.0490487106
	2:[age<61] yes=5,no=6,missing=5
		5:[age<23] yes=11,no=12,missing=11
			11:leaf=-0.00473930826
			12:leaf=-0.093625918
		6:[capital_gain<10586] yes=13,no=14,missing=13
			13:leaf=0.0406223685
			14:leaf=-0.050234437
booster[60]:
0:[education<0.356223524] yes=1,no=2,missing=1
	1:[age<55] yes=3,no=4,missing=3
		3:[age<33] yes=7,no=8,missing=7
			7:leaf=0.00176164915
			8:leaf=-0.0801330134
		4:[workclass<0.657184601] yes=9,no=10,missing=9
			9:leaf=-0.0977310985
			10:leaf=0.0233630911
	2:[relationship<0.529179811] yes=5,no=6,missing=5
		5:[age<50] yes=11,no=12,missing=11
			11:leaf=-0.0461979769
			12:leaf=0.00791357271
		6:[sex<0.786973238] yes=13,no=14,missing=13
			13:leaf=0.00118967087
			14:leaf=0.0428111814
booster[61]:
0:[age<36] yes=1,no=2,missing=1
	1:[relationship<0.529179811] yes=3,no=4,missing=3
		3:[race<0.805075347] yes=7,no=8,missing=7
			7:leaf=-0.0457278006
			8:leaf=0.0319135599
		4:[hours_per_week<41] yes=9,no=10,missing=9
			9:leaf=0.0372361206
			10:leaf=0.00285382709
	2:[age<60] yes=5,no=6,missing=5
		5:[fnlwgt<116568] yes=11,no=12,missing=11
			11:leaf=0.0111391954
			12:leaf=-0.0181267913
		6:[marital_status<0.899078071] yes=13,no=14,missing=13
			13:leaf=0.033862412
			14:leaf=-0.0187943559
booster[62]:
0:[capital_gain<7074] yes=1,no=2,missing=1
	1:[education<0.356223524] yes=3,no=4,missing=3
		3:[capital_gain<544] yes=7,no=8,missing=7
			7:leaf=-0.0493392907
			8:leaf=0.0612784438
		4:[marital_status<0.917541862] yes=9,no=10,missing=9
			9:leaf=0.000845635717
			10:leaf=0.0322640203
	2:[age<62] yes=5,no=6,missing=5
		5:[fnlwgt<31197] yes=11,no=12,missing=11
			11:leaf=-0.00771366432
			12:leaf=-0.0955589786
		6:[capital_gain<10586] yes=13,no=14,missing=13
			13:leaf=0.0815740451
			14:leaf=-0.0904056355
booster[63]:
0:[occupation<0.535411239] yes=1,no=2,missing=1
	1:[hours_per_week<44] yes=3,no=4,missing=3
		3:[capital_loss<1882] yes=7,no=8,missing=7
			7:leaf=-0.00195485144
			8:leaf=-0.0914424881
		4:[fnlwgt<86506] yes=9,no=10,missing=9
			9:leaf=-0.00819260255
			10:leaf=-0.0440151244
	2:[relationship<0.529179811] yes=5,no=6,missing=5
		5:[hours_per_week<55] yes=11,no=12,missing=11
			11:leaf=-0.0360568054
			12:leaf=0.0676997378
		6:[sex<0.786973238] yes=13,no=14,missing=13
			13:leaf=0.0035774284
			14:leaf=0.0418414213
booster[64]:
0:[education<0.51304394] yes=1,no=2,missing=1
	1:[occupation<0.535411239] yes=3,no=4,missing=3
		3:[age<30] yes=7,no=8,missing=7
			7:leaf=0.0466892123
			8:leaf=-0.069274798
		4:[race<0.72721839] yes=9,no=10,missing=9
			9:leaf=0.0497114472
			10:leaf=-0.020158546
	2:[age<24] yes=5,no=6,missing=5
		5:[capital_loss<1833] yes=11,no=12,missing=11
			11:leaf=0.081178017
			12:leaf=-0.0734364167
		6:[native_country<0.866821408] yes=13,no=14,missing=13
			13:leaf=0.00251804944
			14:leaf=0.0616174638
booster[65]:
0:[capital_loss<1749] yes=1,no=2,missing=1
	1:[capital_loss<1569] yes=3,no=4,missing=3
		3:[capital_loss<1552] yes=7,no=8,missing=7
			7:leaf=0.00106215186
			8:leaf=-0.280687302
		4:leaf=0.12706621
	2:[capital_loss<1979] yes=5,no=6,missing=5
		5:[marital_status<0.720871687] yes=9,no=10,missing=9
			9:leaf=-0.108150557
			10:leaf=0.0815311447
		6:[capital_loss<2162] yes=11,no=12,missing=11
			11:leaf=0.163302198
			12:leaf=-0.0484600626
booster[66]:
0:[native_country<0.814116895] yes=1,no=2,missing=1
	1:[capital_gain<7074] yes=3,no=4,missing=3
		3:[hours_per_week<42] yes=7,no=8,missing=7
			7:leaf=0.00670704339
			8:leaf=-0.0117993932
		4:[hours_per_week<36] yes=9,no=10,missing=9
			9:leaf=-0.0292224027
			10:leaf=-0.0815873295
	2:[workclass<0.712930441] yes=5,no=6,missing=5
		5:[education_num<9] yes=11,no=12,missing=11
			11:leaf=-0.0857647583
			12:leaf=0.0323954336
		6:[occupation<0.720758796] yes=13,no=14,missing=13
			13:leaf=0.0262820777
			14:leaf=0.0698340535
booster[67]:
0:[native_country<0.804460406] yes=1,no=2,missing=1
	1:[capital_gain<4244] yes=3,no=4,missing=3
		3:[capital_gain<3121] yes=7,no=8,missing=7
			7:leaf=-6.64575855e-005
			8:leaf=0.154836208
		4:[capital_gain<4402] yes=9,no=10,missing=9
			9:leaf=-0.177098826
			10:leaf=-0.0227032844
	2:[education<0.356223524] yes=5,no=6,missing=5
		5:leaf=-0.089108102
		6:[capital_gain<5096] yes=11,no=12,missing=11
			11:leaf=0.0616971031
			12:leaf=-0.0654134899
booster[68]:
0:[education<0.658042073] yes=1,no=2,missing=1
	1:[occupation<0.535411239] yes=3,no=4,missing=3
		3:[hours_per_week<40] yes=7,no=8,missing=7
			7:leaf=0.0322763771
			8:leaf=-0.0421070568
		4:[fnlwgt<115912] yes=9,no=10,missing=9
			9:leaf=0.014903645
			10:leaf=-0.0144477291
	2:[marital_status<0.917541862] yes=5,no=6,missing=5
		5:[education_num<6] yes=11,no=12,missing=11
			11:leaf=0.0531278551
			12:leaf=0.00140306063
		6:[sex<0.786973238] yes=13,no=14,missing=13
			13:leaf=0.0168682635
			14:leaf=0.075523451
booster[69]:
0:[occupation<0.88044405] yes=1,no=2,missing=1
	1:[capital_gain<7074] yes=3,no=4,missing=3
		3:[relationship<0.529179811] yes=7,no=8,missing=7
			7:leaf=-0.0321021825
			8:leaf=0.00139917491
		4:[age<62] yes=9,no=10,missing=9
			9:leaf=-0.0880184621
			10:leaf=-0.0109746587
	2:[native_country<0.660256386] yes=5,no=6,missing=5
		5:[occupation<0.946626067] yes=11,no=12,missing=11
			11:leaf=-0.0143763665
			12:leaf=-0.122106723
		6:[capital_loss<1806] yes=13,no=14,missing=13
			13:leaf=0.034353774
			14:leaf=-0.0598301888
booster[70]:
0:[capital_gain<7074] yes=1,no=2,missing=1
	1:[capital_gain<3121] yes=3,no=4,missing=3
		3:[capital_gain<3049] yes=7,no=8,missing=7
			7:leaf=0.000649320835
			8:leaf=-0.214250252
		4:[capital_gain<4244] yes=9,no=10,missing=9
			9:leaf=0.146895006
			10:leaf=-0.0122464998
	2:[age<61] yes=5,no=6,missing=5
		5:[relationship<0.915993154] yes=11,no=12,missing=11
			11:leaf=-0.0963955671
			12:leaf=-0.0257489439
		6:[occupation<0.720758796] yes=13,no=14,missing=13
			13:leaf=-0.0802451745
			14:leaf=0.0251018945
booster[71]:
0:[hours_per_week<36] yes=1,no=2,missing=1
	1:[relationship<0.529179811] yes=3,no=4,missing=3
		3:[education<0.73931253] yes=7,no=8,missing=7
			7:leaf=-0.0692735463
			8:leaf=0.000830358535
		4:[capital_gain<4244] yes=9,no=10,missing=9
			9:leaf=0.0488270707
			10:leaf=-0.0558588915
	2:[fnlwgt<119431] yes=5,no=6,missing=5
		5:[education<0.658042073] yes=11,no=12,missing=11
			11:leaf=-0.00212469115
			12:leaf=0.0213712621
		6:[age<44] yes=13,no=14,missing=13
			13:leaf=0.00163318554
			14:leaf=-0.0196272302
booster[72]:
0:[education<0.817769289] yes=1,no=2,missing=1
	1:[capital_loss<2385] yes=3,no=4,missing=3
		3:[fnlwgt<80293] yes=7,no=8,missing=7
			7:leaf=0.0203543231
			8:leaf=-0.0100453086
		4:[marital_status<0.720871687] yes=9,no=10,missing=9
			9:leaf=-0.061795868
			10:leaf=-0.174713418
	2:[marital_status<0.729241133] yes=5,no=6,missing=5
		5:[capital_loss<1990] yes=11,no=12,missing=11
			11:leaf=0.00376821496
			12:leaf=0.122527815
		6:[hours_per_week<42] yes=13,no=14,missing=13
			13:leaf=0.0556897521
			14:leaf=0.00748668192
booster[73]:
0:[education<0.93306154] yes=1,no=2,missing=1
	1:[age<25] yes=3,no=4,missing=3
		3:[age<23] yes=7,no=8,missing=7
			7:leaf=0.0869538859
			8:leaf=0.0361974649
		4:[workclass<0.757541656] yes=9,no=10,missing=9
			9:leaf=0.0088575026
			10:leaf=-0.0109712416
	2:[workclass<0.726903677] yes=5,no=6,missing=5
		5:[fnlwgt<128341] yes=11,no=12,missing=11
			11:leaf=-0.0368838981
			12:leaf=0.0314238854
		6:[hours_per_week<56] yes=13,no=14,missing=13
			13:leaf=0.0576555021
			14:leaf=-0.0238986574
booster[74]:
0:[workclass<0.657184601] yes=1,no=2,missing=1
	1:[education<0.51304394] yes=3,no=4,missing=3
		3:[age<34] yes=7,no=8,missing=7
			7:leaf=0.00498389266
			8:leaf=-0.0752416551
		4:[occupation<0.784263313] yes=9,no=10,missing=9
			9:leaf=-0.0110438466
			10:leaf=-0.0522396341
	2:[age<63] yes=5,no=6,missing=5
		5:[workclass<0.757541656] yes=11,no=12,missing=11
			11:leaf=0.018485507
			12:leaf=-0.0046942723
		6:[age<69] yes=13,no=14,missing=13
			13:leaf=0.0347335301
			14:leaf=0.0722155795
booster[75]:
0:[education<0.92921418] yes=1,no=2,missing=1
	1:[capital_gain<7074] yes=3,no=4,missing=3
		3:[capital_gain<4974] yes=7,no=8,missing=7
			7:leaf=-0.00272525544
			8:leaf=0.077378951
		4:[fnlwgt<289657] yes=9,no=10,missing=9
			9:leaf=-0.0802973732
			10:leaf=-0.00408439664
	2:[fnlwgt<200043] yes=5,no=6,missing=5
		5:[capital_gain<4226] yes=11,no=12,missing=11
			11:leaf=0.019974513
			12:leaf=-0.0956569836
		6:[fnlwgt<378728] yes=13,no=14,missing=13
			13:leaf=0.0722567812
			14:leaf=-0.013870758
booster[76]:
0:[capital_loss<1749] yes=1,no=2,missing=1
	1:[capital_loss<1569] yes=3,no=4,missing=3
		3:[capital_loss<1552] yes=7,no=8,missing=7
			7:leaf=0.00143662666
			8:leaf=-0.249766499
		4:leaf=0.12821874
	2:[capital_loss<1979] yes=5,no=6,missing=5
		5:[marital_status<0.720871687] yes=9,no=10,missing=9
			9:leaf=-0.108071566
			10:leaf=0.0787755772
		6:[capital_loss<2219] yes=11,no=12,missing=11
			11:leaf=0.128350303
			12:leaf=-0.0566639081
booster[77]:
0:[occupation<0.88044405] yes=1,no=2,missing=1
	1:[education<0.356223524] yes=3,no=4,missing=3
		3:[hours_per_week<59] yes=7,no=8,missing=7
			7:leaf=-0.0526889041
			8:leaf=0.00557584129
		4:[hours_per_week<39] yes=9,no=10,missing=9
			9:leaf=0.023805378
			10:leaf=-0.00291278423
	2:[hours_per_week<56] yes=5,no=6,missing=5
		5:[capital_loss<1806] yes=11,no=12,missing=11
			11:leaf=0.038885586
			12:leaf=-0.0399440005
		6:[hours_per_week<58] yes=13,no=14,missing=13
			13:leaf=-0.168369591
			14:leaf=0.0030876731
booster[78]:
0:[age<24] yes=1,no=2,missing=1
	1:[age<22] yes=3,no=4,missing=3
		3:[education<0.770847738] yes=7,no=8,missing=7
			7:leaf=0.0172098409
			8:leaf=0.0994966924
		4:[education<0.881022811] yes=9,no=10,missing=9
			9:leaf=0.0542674027
			10:leaf=-0.0174936447
	2:[education<0.356223524] yes=5,no=6,missing=5
		5:[age<32] yes=11,no=12,missing=11
			11:leaf=0.00902313087
			12:leaf=-0.0482541136
		6:[occupation<0.535411239] yes=13,no=14,missing=13
			13:leaf=-0.0173946694
			14:leaf=0.00399263622
booster[79]:
0:[workclass<0.657184601] yes=1,no=2,missing=1
	1:[education<0.356223524] yes=3,no=4,missing=3
		3:[hours_per_week<68] yes=7,no=8,missing=7
			7:leaf=-0.10435164
			8:leaf=0.0108494079
		4:[hours_per_week<18] yes=9,no=10,missing=9
			9:leaf=0.0867628679
			10:leaf=-0.0227187779
	2:[workclass<0.757541656] yes=5,no=6,missing=5
		5:[relationship<0.529179811] yes=11,no=12,missing=11
			11:leaf=-0.0413773619
			12:leaf=0.0251623746
		6:[hours_per_week<42] yes=13,no=14,missing=13
			13:leaf=0.00492936373
			14:leaf=-0.0179290231
booster[80]:
0:[age<37] yes=1,no=2,missing=1
	1:[hours_per_week<40] yes=3,no=4,missing=3
		3:[relationship<0.529179811] yes=7,no=8,missing=7
			7:leaf=-0.0163667053
			8:leaf=0.0631474704
		4:[capital_gain<7074] yes=9,no=10,missing=9
			9:leaf=0.00758357579
			10:leaf=-0.0844001397
	2:[age<62] yes=5,no=6,missing=5
		5:[workclass<0.757541656] yes=11,no=12,missing=11
			11:leaf=0.00423310278
			12:leaf=-0.0147356689
		6:[workclass<0.657184601] yes=13,no=14,missing=13
			13:leaf=-0.0383765958
			14:leaf=0.0362263843
booster[81]:
0:[capital_loss<1749] yes=1,no=2,missing=1
	1:[capital_loss<1569] yes=3,no=4,missing=3
		3:[capital_loss<1449] yes=7,no=8,missing=7
			7:leaf=0.0017034011
			8:leaf=-0.137936041
		4:leaf=0.123580158
	2:[capital_loss<1979] yes=5,no=6,missing=5
		5:[marital_status<0.720871687] yes=9,no=10,missing=9
			9:leaf=-0.104881786
			10:leaf=0.0836228654
		6:[capital_loss<2162] yes=11,no=12,missing=11
			11:leaf=0.147610351
			12:leaf=-0.0477008224
booster[82]:
0:[age<45] yes=1,no=2,missing=1
	1:[relationship<0.529179811] yes=3,no=4,missing=3
		3:[hours_per_week<59] yes=7,no=8,missing=7
			7:leaf=-0.0294192731
			8:leaf=0.0811862722
		4:[occupation<0.752935529] yes=9,no=10,missing=9
			9:leaf=-0.000325307832
			10:leaf=0.0220864248
	2:[age<60] yes=5,no=6,missing=5
		5:[education_num<5] yes=11,no=12,missing=11
			11:leaf=0.0474301167
			12:leaf=-0.0172144882
		6:[workclass<0.657184601] yes=13,no=14,missing=13
			13:leaf=-0.0371732675
			14:leaf=0.0274048802
booster[83]:
0:[capital_loss<1749] yes=1,no=2,missing=1
	1:[capital_loss<1569] yes=3,no=4,missing=3
		3:[capital_loss<1552] yes=7,no=8,missing=7
			7:leaf=0.00191863615
			8:leaf=-0.19307445
		4:leaf=0.121878617
	2:[capital_loss<1979] yes=5,no=6,missing=5
		5:[marital_status<0.720871687] yes=9,no=10,missing=9
			9:leaf=-0.104148939
			10:leaf=0.0619952567
		6:[capital_loss<2219] yes=11,no=12,missing=11
			11:leaf=0.130510539
			12:leaf=-0.0495940261
booster[84]:
0:[age<27] yes=1,no=2,missing=1
	1:[capital_gain<3033] yes=3,no=4,missing=3
		3:[workclass<0.527730048] yes=7,no=8,missing=7
			7:leaf=-0.0779313818
			8:leaf=0.039795164
		4:[occupation<0.617692113] yes=9,no=10,missing=9
			9:leaf=0.027970532
			10:leaf=-0.0821554884
	2:[fnlwgt<362812] yes=5,no=6,missing=5
		5:[native_country<0.877639771] yes=11,no=12,missing=11
			11:leaf=-0.00246923091
			12:leaf=0.0575977266
		6:[age<65] yes=13,no=14,missing=13
			13:leaf=-0.0398747176
			14:leaf=0.0884835646
booster[85]:
0:[race<0.805075347] yes=1,no=2,missing=1
	1:[age<28] yes=3,no=4,missing=3
		3:[hours_per_week<26] yes=7,no=8,missing=7
			7:leaf=0.0989421532
			8:leaf=0.0199472532
		4:[age<65] yes=9,no=10,missing=9
			9:leaf=-0.00555282598
			10:leaf=0.0348376296
	2:[marital_status<0.899078071] yes=5,no=6,missing=5
		5:[race<0.875930011] yes=11,no=12,missing=11
			11:leaf=0.0106071783
			12:leaf=0.0702797025
		6:[hours_per_week<50] yes=13,no=14,missing=13
			13:leaf=0.0730357692
			14:leaf=0.00437259953
booster[86]:
0:[capital_gain<7074] yes=1,no=2,missing=1
	1:[fnlwgt<118940] yes=3,no=4,missing=3
		3:[race<0.72721839] yes=7,no=8,missing=7
			7:leaf=-0.0378341004
			8:leaf=0.0144950245
		4:[education<0.817769289] yes=9,no=10,missing=9
			9:leaf=-0.0119881956
			10:leaf=0.00863545761
	2:[age<61] yes=5,no=6,missing=5
		5:[capital_gain<7566] yes=11,no=12,missing=11
			11:leaf=-0.0401100628
			12:leaf=-0.0934858248
		6:[capital_gain<10544] yes=13,no=14,missing=13
			13:leaf=-0.0841650218
			14:leaf=0.0553471111
booster[87]:
0:[capital_gain<5096] yes=1,no=2,missing=1
	1:[capital_gain<4974] yes=3,no=4,missing=3
		3:[capital_gain<4244] yes=7,no=8,missing=7
			7:leaf=0.00206656451
			8:leaf=-0.109532729
		4:leaf=0.181880236
	2:[relationship<0.915993154] yes=5,no=6,missing=5
		5:[capital_gain<6619] yes=9,no=10,missing=9
			9:leaf=-0.114826016
			10:leaf=-0.0452597402
		6:[capital_gain<7566] yes=11,no=12,missing=11
			11:leaf=0.0961308181
			12:leaf=-0.0636604503
booster[88]:
0:[workclass<0.657184601] yes=1,no=2,missing=1
	1:[fnlwgt<207003] yes=3,no=4,missing=3
		3:[fnlwgt<188164] yes=7,no=8,missing=7
			7:leaf=-0.018409783
			8:leaf=0.0421758667
		4:[occupation<0.870321155] yes=9,no=10,missing=9
			9:leaf=-0.0558920614
			10:leaf=0.0606442057
	2:[workclass<0.757541656] yes=5,no=6,missing=5
		5:[fnlwgt<180951] yes=11,no=12,missing=11
			11:leaf=0.0303238779
			12:leaf=0.00653671985
		6:[occupation<0.535411239] yes=13,no=14,missing=13
			13:leaf=-0.0288664382
			14:leaf=0.00180077984
booster[89]:
0:[capital_gain<7074] yes=1,no=2,missing=1
	1:[capital_gain<3121] yes=3,no=4,missing=3
		3:[capital_gain<3049] yes=7,no=8,missing=7
			7:leaf=0.000656561635
			8:leaf=-0.179970965
		4:[capital_gain<4244] yes=9,no=10,missing=9
			9:leaf=0.140899584
			10:leaf=-6.51226728e-005
	2:[relationship<0.529179811] yes=5,no=6,missing=5
		5:leaf=0.00958303642
		6:[education_num<6] yes=11,no=12,missing=11
			11:leaf=0.0159975924
			12:leaf=-0.0812689289
booster[90]:
0:[age<65] yes=1,no=2,missing=1
	1:[race<0.805075347] yes=3,no=4,missing=3
		3:[fnlwgt<114541] yes=7,no=8,missing=7
			7:leaf=0.0105933798
			8:leaf=-0.00638527004
		4:[marital_status<0.903710306] yes=9,no=10,missing=9
			9:leaf=0.0160731487
			10:leaf=0.0590013824
	2:[marital_status<0.899078071] yes=5,no=6,missing=5
		5:[capital_gain<10586] yes=11,no=12,missing=11
			11:leaf=0.0555516854
			12:leaf=-0.0609709509
		6:[sex<0.786973238] yes=13,no=14,missing=13
			13:leaf=-0.0709401816
			14:leaf=0.0291168094
booster[91]:
0:[relationship<0.973544419] yes=1,no=2,missing=1
	1:[native_country<0.814116895] yes=3,no=4,missing=3
		3:[capital_loss<1749] yes=7,no=8,missing=7
			7:leaf=-0.00171959982
			8:leaf=-0.0328557789
		4:[education<0.73931253] yes=9,no=10,missing=9
			9:leaf=0.0655932724
			10:leaf=0.0298316982
	2:[marital_status<0.903710306] yes=5,no=6,missing=5
		5:[education<0.92921418] yes=11,no=12,missing=11
			11:leaf=0.0129769668
			12:leaf=-0.125155985
		6:[capital_loss<1535] yes=13,no=14,missing=13
			13:leaf=0.0683989227
			14:leaf=-0.112037636
booster[92]:
0:[fnlwgt<343586] yes=1,no=2,missing=1
	1:[hours_per_week<28] yes=3,no=4,missing=3
		3:[relationship<0.529179811] yes=7,no=8,missing=7
			7:leaf=-0.0195291769
			8:leaf=0.0507760458
		4:[education<0.658042073] yes=9,no=10,missing=9
			9:leaf=-0.0102352863
			10:leaf=0.00466142036
	2:[hours_per_week<44] yes=5,no=6,missing=5
		5:[fnlwgt<344857] yes=11,no=12,missing=11
			11:leaf=-0.148059949
			12:leaf=-0.00666757673
		6:[education<0.770847738] yes=13,no=14,missing=13
			13:leaf=-0.0273093022
			14:leaf=-0.0679932535
booster[93]:
0:[capital_loss<2385] yes=1,no=2,missing=1
	1:[capital_gain<5096] yes=3,no=4,missing=3
		3:[capital_gain<4974] yes=7,no=8,missing=7
			7:leaf=0.000162940341
			8:leaf=0.163095608
		4:[marital_status<0.729241133] yes=9,no=10,missing=9
			9:leaf=-0.0828777179
			10:leaf=-0.00100589532
	2:[capital_loss<2582] yes=5,no=6,missing=5
		5:[age<63] yes=11,no=12,missing=11
			11:leaf=-0.143303692
			12:leaf=0.0138314916
		6:[education<0.661455393] yes=13,no=14,missing=13
			13:leaf=-0.112282395
			14:leaf=0.0959844515
booster[94]:
0:[marital_status<0.917541862] yes=1,no=2,missing=1
	1:[education<0.92921418] yes=3,no=4,missing=3
		3:[workclass<0.757541656] yes=7,no=8,missing=7
			7:leaf=0.00535912393
			8:leaf=-0.011116622
		4:[hours_per_week<46] yes=9,no=10,missing=9
			9:leaf=0.0358269922
			10:leaf=-0.0109030679
	2:[relationship<0.949930549] yes=5,no=6,missing=5
		5:[sex<0.786973238] yes=11,no=12,missing=11
			11:leaf=-0.0115864705
			12:leaf=0.0330181085
		6:[capital_loss<1535] yes=13,no=14,missing=13
			13:leaf=0.0749458373
			14:leaf=-0.0923365727
booster[95]:
0:[fnlwgt<344009] yes=1,no=2,missing=1
	1:[workclass<0.657184601] yes=3,no=4,missing=3
		3:[workclass<0.527730048] yes=7,no=8,missing=7
			7:leaf=-0.00361158745
			8:leaf=-0.0412616432
		4:[fnlwgt<242085] yes=9,no=10,missing=9
			9:leaf=-0.00145755091
			10:leaf=0.0213186927
	2:[hours_per_week<42] yes=5,no=6,missing=5
		5:[fnlwgt<344874] yes=11,no=12,missing=11
			11:leaf=-0.188506171
			12:leaf=-0.00455265539
		6:[age<41] yes=13,no=14,missing=13
			13:leaf=-0.0236502979
			14:leaf=-0.0872775763
booster[96]:
0:[race<0.805075347] yes=1,no=2,missing=1
	1:[age<62] yes=3,no=4,missing=3
		3:[age<44] yes=7,no=8,missing=7
			7:leaf=0.0020010611
			8:leaf=-0.0111363968
		4:[workclass<0.657184601] yes=9,no=10,missing=9
			9:leaf=-0.0357205458
			10:leaf=0.0328133553
	2:[fnlwgt<164035] yes=5,no=6,missing=5
		5:[education<0.73931253] yes=11,no=12,missing=11
			11:leaf=-0.00349470577
			12:leaf=0.0662260428
		6:[age<40] yes=13,no=14,missing=13
			13:leaf=0.032914456
			14:leaf=-0.0131893754
booster[97]:
0:[capital_gain<7566] yes=1,no=2,missing=1
	1:[capital_gain<58] yes=3,no=4,missing=3
		3:[marital_status<0.940908313] yes=7,no=8,missing=7
			7:leaf=-0.00315961777
			8:leaf=0.0178740676
		4:[capital_gain<3049] yes=9,no=10,missing=9
			9:leaf=0.132363066
			10:leaf=0.00283712894
	2:[capital_gain<21046] yes=5,no=6,missing=5
		5:[fnlwgt<368050] yes=11,no=12,missing=11
			11:leaf=-0.0843736008
			12:leaf=-0.00734675257
		6:[capital_gain<70655] yes=13,no=14,missing=13
			13:leaf=0.0548592396
			14:leaf=-0.0756815076
booster[98]:
0:[education<0.51304394] yes=1,no=2,missing=1
	1:[occupation<0.535411239] yes=3,no=4,missing=3
		3:[fnlwgt<126491] yes=7,no=8,missing=7
			7:leaf=-0.0831780955
			8:leaf=-0.0198553447
		4:[fnlwgt<35437] yes=9,no=10,missing=9
			9:leaf=0.0609941743
			10:leaf=-0.0134487515
	2:[relationship<0.529179811] yes=5,no=6,missing=5
		5:[occupation<0.828573823] yes=11,no=12,missing=11
			11:leaf=-0.00351439836
			12:leaf=-0.0382890217
		6:[sex<0.786973238] yes=13,no=14,missing=13
			13:leaf=-0.000133554146
			14:leaf=0.0335800722
booster[99]:
0:[native_country<0.913386881] yes=1,no=2,missing=1
	1:[hours_per_week<24] yes=3,no=4,missing=3
		3:[relationship<0.529179811] yes=7,no=8,missing=7
			7:leaf=-0.0246720631
			8:leaf=0.0500675216
		4:[fnlwgt<116205] yes=9,no=10,missing=9
			9:leaf=0.00821849983
			10:leaf=-0.00623575179
	2:[workclass<0.712930441] yes=5,no=6,missing=5
		5:[fnlwgt<245486] yes=11,no=12,missing=11
			11:leaf=0.0490991473
			12:leaf=-0.0816913396
		6:[capital_gain<4226] yes=13,no=14,missing=13
			13:leaf=0.0700625032
			14:leaf=-0.0420330763
booster[100]:
0:[education<0.356223524] yes=1,no=2,missing=1
	1:[age<32] yes=3,no=4,missing=3
		3:[hours_per_week<68] yes=7,no=8,missing=7
			7:leaf=0.00622738106
			8:leaf=0.103318714
		4:[age<55] yes=9,no=10,missing=9
			9:leaf=-0.0548225529
			10:leaf=-0.000901958556
	2:[marital_status<0.917541862] yes=5,no=6,missing=5
		5:[fnlwgt<358150] yes=11,no=12,missing=11
			11:leaf=0.00104514766
			12:leaf=-0.0270218309
		6:[sex<0.786973238] yes=13,no=14,missing=13
			13:leaf=0.00435373094
			14:leaf=0.045523461
booster[101]:
0:[occupation<0.88044405] yes=1,no=2,missing=1
	1:[capital_gain<10586] yes=3,no=4,missing=3
		3:[capital_gain<3121] yes=7,no=8,missing=7
			7:leaf=-0.00285685412
			8:leaf=0.0343822762
		4:[hours_per_week<59] yes=9,no=10,missing=9
			9:leaf=-0.0916137323
			10:leaf=-0.0107681816
	2:[hours_per_week<56] yes=5,no=6,missing=5
		5:[education_num<14] yes=11,no=12,missing=11
			11:leaf=0.028198868
			12:leaf=0.123958744
		6:[hours_per_week<58] yes=13,no=14,missing=13
			13:leaf=-0.162108108
			14:leaf=-0.00204770151
booster[102]:
0:[capital_gain<4244] yes=1,no=2,missing=1
	1:[capital_gain<3121] yes=3,no=4,missing=3
		3:[capital_gain<3041] yes=7,no=8,missing=7
			7:leaf=0.0024694188
			8:leaf=-0.160491735
		4:leaf=0.137753949
	2:[capital_gain<4827] yes=5,no=6,missing=5
		5:[capital_gain<4669] yes=9,no=10,missing=9
			9:leaf=-0.0646422431
			10:leaf=-0.23681581
		6:[capital_gain<5120] yes=11,no=12,missing=11
			11:leaf=0.111912228
			12:leaf=-0.0374805443
booster[103]:
0:[education_num<5] yes=1,no=2,missing=1
	1:[workclass<0.657184601] yes=3,no=4,missing=3
		3:leaf=-0.128026828
		4:[occupation<0.535411239] yes=7,no=8,missing=7
			7:leaf=-0.0635767654
			8:leaf=0.0638668388
	2:[capital_loss<2385] yes=5,no=6,missing=5
		5:[capital_loss<1979] yes=9,no=10,missing=9
			9:leaf=-0.00185744057
			10:leaf=0.0732936636
		6:[capital_loss<3254] yes=11,no=12,missing=11
			11:leaf=-0.11464458
			12:leaf=0.0360609852
booster[104]:
0:[age<44] yes=1,no=2,missing=1
	1:[relationship<0.529179811] yes=3,no=4,missing=3
		3:[native_country<0.69044888] yes=7,no=8,missing=7
			7:leaf=-0.116106026
			8:leaf=-0.0214992668
		4:[hours_per_week<48] yes=9,no=10,missing=9
			9:leaf=0.0167914778
			10:leaf=-0.0048679607
	2:[age<60] yes=5,no=6,missing=5
		5:[sex<0.786973238] yes=11,no=12,missing=11
			11:leaf=-0.0176847037
			12:leaf=0.00718714902
		6:[fnlwgt<529362] yes=13,no=14,missing=13
			13:leaf=0.0176847279
			14:leaf=-0.125214249
booster[105]:
0:[sex<0.786973238] yes=1,no=2,missing=1
	1:[relationship<0.71965611] yes=3,no=4,missing=3
		3:[capital_loss<1990] yes=7,no=8,missing=7
			7:leaf=-0.00141533592
			8:leaf=0.111398809
		4:[relationship<0.949930549] yes=9,no=10,missing=9
			9:leaf=-0.0270921383
			10:leaf=0.0344984606
	2:[marital_status<0.729241133] yes=5,no=6,missing=5
		5:[age<50] yes=11,no=12,missing=11
			11:leaf=-0.0221145395
			12:leaf=0.018659642
		6:[education<0.770847738] yes=13,no=14,missing=13
			13:leaf=0.0191954914
			14:leaf=0.0509655438
booster[106]:
0:[age<24] yes=1,no=2,missing=1
	1:[native_country<0.942725658] yes=3,no=4,missing=3
		3:[fnlwgt<195519] yes=7,no=8,missing=7
			7:leaf=0.0911048278
			8:leaf=0.0380681567
		4:leaf=-0.0655185506
	2:[capital_loss<1749] yes=5,no=6,missing=5
		5:[capital_loss<1569] yes=9,no=10,missing=9
			9:leaf=0.000407335319
			10:leaf=0.119588397
		6:[capital_loss<1979] yes=11,no=12,missing=11
			11:leaf=-0.0790860876
			12:leaf=0.0172842741
booster[107]:
0:[capital_loss<1882] yes=1,no=2,missing=1
	1:[capital_loss<1569] yes=3,no=4,missing=3
		3:[capital_loss<1552] yes=7,no=8,missing=7
			7:leaf=0.000520658854
			8:leaf=-0.183667228
		4:[capital_loss<1749] yes=9,no=10,missing=9
			9:leaf=0.117522098
			10:leaf=-0.0082997717
	2:[capital_loss<1979] yes=5,no=6,missing=5
		5:[capital_loss<1895] yes=11,no=12,missing=11
			11:leaf=-0.115406446
			12:leaf=-0.0628823861
		6:[capital_loss<2162] yes=13,no=14,missing=13
			13:leaf=0.139476046
			14:leaf=-0.0352181382
booster[108]:
0:[age<44] yes=1,no=2,missing=1
	1:[education_num<10] yes=3,no=4,missing=3
		3:[hours_per_week<64] yes=7,no=8,missing=7
			7:leaf=0.0214517321
			8:leaf=-0.0508650318
		4:[capital_gain<7074] yes=9,no=10,missing=9
			9:leaf=0.00299896533
			10:leaf=-0.0818848535
	2:[age<55] yes=5,no=6,missing=5
		5:[sex<0.786973238] yes=11,no=12,missing=11
			11:leaf=-0.0188839566
			12:leaf=0.0104318233
		6:[hours_per_week<70] yes=13,no=14,missing=13
			13:leaf=0.00923793204
			14:leaf=0.0781837627
booster[109]:
0:[capital_gain<4244] yes=1,no=2,missing=1
	1:[capital_gain<3121] yes=3,no=4,missing=3
		3:[capital_gain<3049] yes=7,no=8,missing=7
			7:leaf=0.00229520863
			8:leaf=-0.150476873
		4:leaf=0.135147035
	2:[capital_gain<4402] yes=5,no=6,missing=5
		5:[hours_per_week<48] yes=9,no=10,missing=9
			9:leaf=-0.16718863
			10:leaf=-0.00545493327
		6:[capital_gain<4669] yes=11,no=12,missing=11
			11:leaf=0.126052678
			12:leaf=-0.024799047
booster[110]:
0:[capital_loss<1749] yes=1,no=2,missing=1
	1:[capital_loss<1569] yes=3,no=4,missing=3
		3:[capital_loss<1449] yes=7,no=8,missing=7
			7:leaf=0.000217200984
			8:leaf=-0.0944416896
		4:leaf=0.113702849
	2:[capital_loss<1979] yes=5,no=6,missing=5
		5:[marital_status<0.720871687] yes=9,no=10,missing=9
			9:leaf=-0.0938206464
			10:leaf=0.0691645667
		6:[capital_loss<2162] yes=11,no=12,missing=11
			11:leaf=0.137931019
			12:leaf=-0.0397147946
booster[111]:
0:[occupation<0.946626067] yes=1,no=2,missing=1
	1:[age<45] yes=3,no=4,missing=3
		3:[hours_per_week<49] yes=7,no=8,missing=7
			7:leaf=0.0084429374
			8:leaf=-0.00762481242
		4:[hours_per_week<60] yes=9,no=10,missing=9
			9:leaf=-0.0116029074
			10:leaf=0.0157757811
	2:[native_country<0.659420311] yes=5,no=6,missing=5
		5:[native_country<0.632277489] yes=11,no=12,missing=11
			11:leaf=0.00476261787
			12:leaf=-0.127929479
		6:[age<32] yes=13,no=14,missing=13
			13:leaf=-0.00329710334
			14:leaf=0.0429552644
booster[112]:
0:[education<0.817769289] yes=1,no=2,missing=1
	1:[fnlwgt<114541] yes=3,no=4,missing=3
		3:[fnlwgt<111651] yes=7,no=8,missing=7
			7:leaf=0.00639449758
			8:leaf=0.0599866174
		4:[fnlwgt<130494] yes=9,no=10,missing=9
			9:leaf=-0.0340377912
			10:leaf=-0.00714072073
	2:[marital_status<0.729241133] yes=5,no=6,missing=5
		5:[occupation<0.828573823] yes=11,no=12,missing=11
			11:leaf=0.00902668294
			12:leaf=-0.0138035482
		6:[workclass<0.757541656] yes=13,no=14,missing=13
			13:leaf=-0.0142199788
			14:leaf=0.0429168306
booster[113]:
0:[capital_loss<2385] yes=1,no=2,missing=1
	1:[capital_loss<1979] yes=3,no=4,missing=3
		3:[capital_loss<1882] yes=7,no=8,missing=7
			7:leaf=0.00110543519
			8:leaf=-0.0678251162
		4:[age<65] yes=9,no=10,missing=9
			9:leaf=0.110693157
			10:leaf=-0.0626970083
	2:[capital_loss<2582] yes=5,no=6,missing=5
		5:leaf=-0.115560167
		6:[education<0.661455393] yes=11,no=12,missing=11
			11:leaf=-0.0989846885
			12:leaf=0.0879786164
booster[114]:
0:[native_country<0.804460406] yes=1,no=2,missing=1
	1:[workclass<0.757541656] yes=3,no=4,missing=3
		3:[workclass<0.657184601] yes=7,no=8,missing=7
			7:leaf=-0.0180878155
			8:leaf=0.0183199737
		4:[hours_per_week<42] yes=9,no=10,missing=9
			9:leaf=0.00237603649
			10:leaf=-0.0170328263
	2:[workclass<0.757541656] yes=5,no=6,missing=5
		5:[relationship<0.71965611] yes=11,no=12,missing=11
			11:leaf=0.0413561538
			12:leaf=-0.118475907
		6:[age<60] yes=13,no=14,missing=13
			13:leaf=0.0598633401
			14:leaf=-0.0609238707
booster[115]:
0:[race<0.805075347] yes=1,no=2,missing=1
	1:[age<22] yes=3,no=4,missing=3
		3:[fnlwgt<323590] yes=7,no=8,missing=7
			7:leaf=0.0940819904
			8:leaf=-0.00979907997
		4:[workclass<0.657184601] yes=9,no=10,missing=9
			9:leaf=-0.01944994
			10:leaf=-0.000674662006
	2:[fnlwgt<153284] yes=5,no=6,missing=5
		5:[education_num<12] yes=11,no=12,missing=11
			11:leaf=0.0692997575
			12:leaf=-0.0152988452
		6:[fnlwgt<155318] yes=13,no=14,missing=13
			13:leaf=-0.118788995
			14:leaf=0.0106900735
booster[116]:
0:[workclass<0.757541656] yes=1,no=2,missing=1
	1:[education<0.356223524] yes=3,no=4,missing=3
		3:[age<31] yes=7,no=8,missing=7
			7:leaf=0.069286406
			8:leaf=-0.0463833362
		4:[workclass<0.712930441] yes=9,no=10,missing=9
			9:leaf=-0.00237991451
			10:leaf=0.02424285
	2:[education<0.658042073] yes=5,no=6,missing=5
		5:[native_country<0.774720967] yes=11,no=12,missing=11
			11:leaf=-0.0189045984
			12:leaf=0.0674038306
		6:[marital_status<0.729241133] yes=13,no=14,missing=13
			13:leaf=-0.00505169621
			14:leaf=0.0277620554
booster[117]:
0:[capital_loss<1749] yes=1,no=2,missing=1
	1:[capital_loss<1569] yes=3,no=4,missing=3
		3:[capital_loss<1552] yes=7,no=8,missing=7
			7:leaf=0.00109050027
			8:leaf=-0.172963068
		4:leaf=0.11067231
	2:[capital_loss<1979] yes=5,no=6,missing=5
		5:[marital_status<0.720871687] yes=9,no=10,missing=9
			9:leaf=-0.0923791751
			10:leaf=0.0677982569
		6:[capital_loss<2162] yes=11,no=12,missing=11
			11:leaf=0.127844751
			12:leaf=-0.0350426361
booster[118]:
0:[capital_gain<4244] yes=1,no=2,missing=1
	1:[capital_gain<3121] yes=3,no=4,missing=3
		3:[capital_gain<3049] yes=7,no=8,missing=7
			7:leaf=9.38994781e-005
			8:leaf=-0.13702558
		4:leaf=0.130296886
	2:[capital_gain<4974] yes=5,no=6,missing=5
		5:[capital_gain<4669] yes=9,no=10,missing=9
			9:leaf=-0.0795287043
			10:leaf=-0.190241903
		6:[capital_gain<5120] yes=11,no=12,missing=11
			11:leaf=0.154301643
			12:leaf=-0.0334291235
booster[119]:
0:[capital_gain<7074] yes=1,no=2,missing=1
	1:[capital_gain<58] yes=3,no=4,missing=3
		3:[fnlwgt<79870] yes=7,no=8,missing=7
			7:leaf=0.0145966755
			8:leaf=-0.00295370305
		4:[capital_gain<3049] yes=9,no=10,missing=9
			9:leaf=0.131321847
			10:leaf=0.00365684298
	2:[capital_gain<21046] yes=5,no=6,missing=5
		5:[fnlwgt<256750] yes=11,no=12,missing=11
			11:leaf=-0.0991051346
			12:leaf=-0.0214317385
		6:[capital_gain<70655] yes=13,no=14,missing=13
			13:leaf=0.0804331526
			14:leaf=-0.0691288635
booster[120]:
0:[fnlwgt<27580] yes=1,no=2,missing=1
	1:[relationship<0.915993154] yes=3,no=4,missing=3
		3:[occupation<0.908900678] yes=7,no=8,missing=7
			7:leaf=-0.0754777566
			8:leaf=0.0730068386
		4:leaf=0.0721481442
	2:[fnlwgt<118940] yes=5,no=6,missing=5
		5:[age<52] yes=9,no=10,missing=9
			9:leaf=0.015460657
			10:leaf=-0.00893035159
		6:[education<0.92921418] yes=11,no=12,missing=11
			11:leaf=-0.00415326608
			12:leaf=0.030201897
booster[121]:
0:[marital_status<0.940908313] yes=1,no=2,missing=1
	1:[native_country<0.948202431] yes=3,no=4,missing=3
		3:[race<0.875930011] yes=7,no=8,missing=7
			7:leaf=-0.00213659671
			8:leaf=0.0534206517
		4:[marital_status<0.720871687] yes=9,no=10,missing=9
			9:leaf=0.109180942
			10:leaf=0.0285952892
	2:[age<33] yes=5,no=6,missing=5
		5:[capital_loss<2219] yes=11,no=12,missing=11
			11:leaf=0.0419356823
			12:leaf=-0.131331906
		6:[education<0.356223524] yes=13,no=14,missing=13
			13:leaf=-0.0632734895
			14:leaf=0.0105998022
booster[122]:
0:[age<24] yes=1,no=2,missing=1
	1:[age<21] yes=3,no=4,missing=3
		3:leaf=0.0889510438
		4:[occupation<0.946626067] yes=7,no=8,missing=7
			7:leaf=0.0462128483
			8:leaf=-0.036188256
	2:[capital_gain<10586] yes=5,no=6,missing=5
		5:[fnlwgt<343613] yes=9,no=10,missing=9
			9:leaf=0.000286487368
			10:leaf=-0.0199955944
		6:[capital_gain<30962] yes=11,no=12,missing=11
			11:leaf=-0.0939408168
			12:leaf=-0.0265343096
booster[123]:
0:[fnlwgt<83362] yes=1,no=2,missing=1
	1:[age<72] yes=3,no=4,missing=3
		3:[fnlwgt<82051] yes=7,no=8,missing=7
			7:leaf=0.00938892737
			8:leaf=0.0994433388
		4:[fnlwgt<53560] yes=9,no=10,missing=9
			9:leaf=-0.0307945367
			10:leaf=-0.204995468
	2:[fnlwgt<83449] yes=5,no=6,missing=5
		5:leaf=-0.191776246
		6:[occupation<0.712424517] yes=11,no=12,missing=11
			11:leaf=-0.0108622387
			12:leaf=0.00130266009
booster[124]:
0:[fnlwgt<24318] yes=1,no=2,missing=1
	1:[fnlwgt<22973] yes=3,no=4,missing=3
		3:[age<51] yes=7,no=8,missing=7
			7:leaf=-0.0565180443
			8:leaf=0.0569767058
		4:[fnlwgt<23759] yes=9,no=10,missing=9
			9:leaf=-0.198619187
			10:leaf=-0.0483128503
	2:[hours_per_week<36] yes=5,no=6,missing=5
		5:[relationship<0.529179811] yes=11,no=12,missing=11
			11:leaf=-0.0168542247
			12:leaf=0.0299042203
		6:[age<65] yes=13,no=14,missing=13
			13:leaf=-0.0011531146
			14:leaf=0.0311565455
booster[125]:
0:[age<65] yes=1,no=2,missing=1
	1:[capital_loss<2385] yes=3,no=4,missing=3
		3:[capital_loss<2299] yes=7,no=8,missing=7
			7:leaf=-0.0010894452
			8:leaf=0.161899149
		4:[capital_loss<2582] yes=9,no=10,missing=9
			9:leaf=-0.126242384
			10:leaf=0.0300526619
	2:[hours_per_week<60] yes=5,no=6,missing=5
		5:[marital_status<0.899078071] yes=11,no=12,missing=11
			11:leaf=0.0343051516
			12:leaf=-0.030690629
		6:[age<69] yes=13,no=14,missing=13
			13:leaf=0.146987483
			14:leaf=0.0354647748
booster[126]:
0:[age<80] yes=1,no=2,missing=1
	1:[education<0.256201982] yes=3,no=4,missing=3
		3:[age<31] yes=7,no=8,missing=7
			7:leaf=0.0317248777
			8:leaf=-0.0428445637
		4:[workclass<0.757541656] yes=9,no=10,missing=9
			9:leaf=0.00716612488
			10:leaf=-0.00405615149
	2:[sex<0.786973238] yes=5,no=6,missing=5
		5:[age<85] yes=11,no=12,missing=11
			11:leaf=0.0263039712
			12:leaf=0.135938644
		6:leaf=0.0139924604
booster[127]:
0:[hours_per_week<26] yes=1,no=2,missing=1
	1:[education<0.817769289] yes=3,no=4,missing=3
		3:[age<30] yes=7,no=8,missing=7
			7:leaf=0.0875236839
			8:leaf=-0.0036532667
		4:[native_country<0.712701201] yes=9,no=10,missing=9
			9:leaf=-0.0362032764
			10:leaf=0.0605613664
	2:[capital_gain<10586] yes=5,no=6,missing=5
		5:[capital_gain<58] yes=11,no=12,missing=11
			11:leaf=-0.00349396165
			12:leaf=0.0219614804
		6:leaf=-0.0935102627
booster[128]:
0:[age<44] yes=1,no=2,missing=1
	1:[relationship<0.529179811] yes=3,no=4,missing=3
		3:[hours_per_week<55] yes=7,no=8,missing=7
			7:leaf=-0.0238332674
			8:leaf=0.0864761397
		4:[hours_per_week<48] yes=9,no=10,missing=9
			9:leaf=0.0122647537
			10:leaf=-0.00451289723
	2:[age<55] yes=5,no=6,missing=5
		5:[hours_per_week<60] yes=11,no=12,missing=11
			11:leaf=-0.0157383401
			12:leaf=0.0140378205
		6:[marital_status<0.899078071] yes=13,no=14,missing=13
			13:leaf=0.00779607613
			14:leaf=-0.028354397
booster[129]:
0:[capital_loss<2385] yes=1,no=2,missing=1
	1:[capital_loss<2263] yes=3,no=4,missing=3
		3:[capital_loss<2219] yes=7,no=8,missing=7
			7:leaf=0.000480430957
			8:leaf=-0.102186978
		4:[age<64] yes=9,no=10,missing=9
			9:leaf=0.137360319
			10:leaf=-0.00585317798
	2:[capital_loss<3344] yes=5,no=6,missing=5
		5:[marital_status<0.720871687] yes=11,no=12,missing=11
			11:leaf=-0.0186187252
			12:leaf=-0.129471883
		6:leaf=0.0511772037
booster[130]:
0:[race<0.805075347] yes=1,no=2,missing=1
	1:[relationship<0.529179811] yes=3,no=4,missing=3
		3:[hours_per_week<53] yes=7,no=8,missing=7
			7:leaf=-0.0241550915
			8:leaf=0.0578603223
		4:[hours_per_week<32] yes=9,no=10,missing=9
			9:leaf=0.0276102014
			10:leaf=-0.000664914609
	2:[hours_per_week<54] yes=5,no=6,missing=5
		5:[capital_gain<4244] yes=11,no=12,missing=11
			11:leaf=0.0276804157
			12:leaf=-0.0551727712
		6:[hours_per_week<62] yes=13,no=14,missing=13
			13:leaf=-0.06210519
			14:leaf=0.0208096132
booster[131]:
0:[age<22] yes=1,no=2,missing=1
	1:leaf=0.082124427
	2:[race<0.875930011] yes=3,no=4,missing=3
		3:[age<82] yes=5,no=6,missing=5
			5:leaf=-0.000460886455
			6:leaf=0.10092479
		4:[hours_per_week<40] yes=7,no=8,missing=7
			7:leaf=-0.04737572
			8:leaf=0.0670556203
booster[132]:
0:[workclass<0.757541656] yes=1,no=2,missing=1
	1:[relationship<0.529179811] yes=3,no=4,missing=3
		3:[hours_per_week<43] yes=7,no=8,missing=7
			7:leaf=-0.0475865267
			8:leaf=0.0265754908
		4:[workclass<0.657184601] yes=9,no=10,missing=9
			9:leaf=-0.00403737416
			10:leaf=0.0176248327
	2:[race<0.805075347] yes=5,no=6,missing=5
		5:[occupation<0.535411239] yes=11,no=12,missing=11
			11:leaf=-0.0191579908
			12:leaf=-0.00214365963
		6:[fnlwgt<160876] yes=13,no=14,missing=13
			13:leaf=0.0645287186
			14:leaf=0.00861210655
booster[133]:
0:[fnlwgt<29718] yes=1,no=2,missing=1
	1:[age<35] yes=3,no=4,missing=3
		3:[education<0.817769289] yes=7,no=8,missing=7
			7:leaf=-0.0554624908
			8:leaf=-0.164421529
		4:[occupation<0.535411239] yes=9,no=10,missing=9
			9:leaf=-0.0864641741
			10:leaf=0.00325677893
	2:[fnlwgt<344009] yes=5,no=6,missing=5
		5:[capital_loss<2385] yes=11,no=12,missing=11
			11:leaf=0.00356216705
			12:leaf=-0.0800193325
		6:[fnlwgt<344774] yes=13,no=14,missing=13
			13:leaf=-0.170319632
			14:leaf=-0.0116566485
booster[134]:
0:[sex<0.786973238] yes=1,no=2,missing=1
	1:[relationship<0.71965611] yes=3,no=4,missing=3
		3:[workclass<0.726903677] yes=7,no=8,missing=7
			7:leaf=0.00963349827
			8:leaf=-0.00395528926
		4:[occupation<0.784263313] yes=9,no=10,missing=9
			9:leaf=-0.0256104115
			10:leaf=0.0230285432
	2:[marital_status<0.729241133] yes=5,no=6,missing=5
		5:[age<55] yes=11,no=12,missing=11
			11:leaf=-0.0130635863
			12:leaf=0.0472863056
		6:[education<0.770847738] yes=13,no=14,missing=13
			13:leaf=0.00857250951
			14:leaf=0.0444151685
booster[135]:
0:[capital_loss<2385] yes=1,no=2,missing=1
	1:[capital_loss<2263] yes=3,no=4,missing=3
		3:[capital_loss<2219] yes=7,no=8,missing=7
			7:leaf=2.7825532e-005
			8:leaf=-0.102126315
		4:leaf=0.122972243
	2:[marital_status<0.720871687] yes=5,no=6,missing=5
		5:[workclass<0.751660109] yes=9,no=10,missing=9
			9:leaf=-0.0625533462
			10:leaf=0.0650322661
		6:[education<0.817769289] yes=11,no=12,missing=11
			11:leaf=-0.124692224
			12:leaf=-0.0391663574
booster[136]:
0:[capital_gain<7566] yes=1,no=2,missing=1
	1:[capital_gain<4974] yes=3,no=4,missing=3
		3:[capital_gain<4669] yes=7,no=8,missing=7
			7:leaf=-5.9734466e-005
			8:leaf=-0.156716406
		4:[capital_gain<5096] yes=9,no=10,missing=9
			9:leaf=0.151318997
			10:leaf=-0.0203164108
	2:[age<55] yes=5,no=6,missing=5
		5:[capital_gain<30962] yes=11,no=12,missing=11
			11:leaf=-0.0947062224
			12:leaf=-0.0173042957
		6:[capital_gain<10586] yes=13,no=14,missing=13
			13:leaf=0.0536267869
			14:leaf=-0.0562445819
booster[137]:
0:[fnlwgt<237682] yes=1,no=2,missing=1
	1:[fnlwgt<89494] yes=3,no=4,missing=3
		3:[fnlwgt<29700] yes=7,no=8,missing=7
			7:leaf=-0.0309469607
			8:leaf=0.0148396045
		4:[fnlwgt<237097] yes=9,no=10,missing=9
			9:leaf=-0.0067303949
			10:leaf=-0.151124969
	2:[fnlwgt<343586] yes=5,no=6,missing=5
		5:[fnlwgt<342103] yes=11,no=12,missing=11
			11:leaf=0.0140640056
			12:leaf=0.118812971
		6:[fnlwgt<344238] yes=13,no=14,missing=13
			13:leaf=-0.117733419
			14:leaf=-0.00522598159
booster[138]:
0:[workclass<0.657184601] yes=1,no=2,missing=1
	1:[occupation<0.828573823] yes=3,no=4,missing=3
		3:[fnlwgt<207588] yes=7,no=8,missing=7
			7:leaf=0.00764572481
			8:leaf=-0.0313078985
		4:[hours_per_week<45] yes=9,no=10,missing=9
			9:leaf=-0.065103218
			10:leaf=0.0189812295
	2:[capital_loss<1749] yes=5,no=6,missing=5
		5:[capital_loss<1569] yes=11,no=12,missing=11
			11:leaf=0.00330804661
			12:leaf=0.108285964
		6:[capital_loss<1979] yes=13,no=14,missing=13
			13:leaf=-0.0682608634
			14:leaf=0.0179908834
booster[139]:
0:[age<45] yes=1,no=2,missing=1
	1:[capital_gain<7566] yes=3,no=4,missing=3
		3:[capital_loss<1447] yes=7,no=8,missing=7
			7:leaf=0.00801555719
			8:leaf=-0.0217130296
		4:[hours_per_week<39] yes=9,no=10,missing=9
			9:leaf=-0.019153554
			10:leaf=-0.090510644
	2:[age<69] yes=5,no=6,missing=5
		5:[hours_per_week<60] yes=11,no=12,missing=11
			11:leaf=-0.00900015514
			12:leaf=0.013330685
		6:[fnlwgt<98364] yes=13,no=14,missing=13
			13:leaf=-0.0452198908
			14:leaf=0.0462458543
booster[140]:
0:[fnlwgt<29718] yes=1,no=2,missing=1
	1:[occupation<0.908900678] yes=3,no=4,missing=3
		3:[age<35] yes=7,no=8,missing=7
			7:leaf=-0.086972557
			8:leaf=-0.0316671841
		4:[fnlwgt<26471] yes=9,no=10,missing=9
			9:leaf=0.06630335
			10:leaf=0.00638360623
	2:[fnlwgt<59977] yes=5,no=6,missing=5
		5:[fnlwgt<56045] yes=11,no=12,missing=11
			11:leaf=0.0109158885
			12:leaf=0.0818918645
		6:[education<0.92921418] yes=13,no=14,missing=13
			13:leaf=-0.00111912063
			14:leaf=0.0201338362
booster[141]:
0:[native_country<0.907936513] yes=1,no=2,missing=1
	1:[relationship<0.529179811] yes=3,no=4,missing=3
		3:[hours_per_week<53] yes=7,no=8,missing=7
			7:leaf=-0.02152244
			8:leaf=0.0486920699
		4:[sex<0.786973238] yes=9,no=10,missing=9
			9:leaf=-0.00213622604
			10:leaf=0.0190564636
	2:[workclass<0.712930441] yes=5,no=6,missing=5
		5:[education_num<9] yes=11,no=12,missing=11
			11:leaf=-0.117506221
			12:leaf=0.033699628
		6:[education_num<14] yes=13,no=14,missing=13
			13:leaf=0.0563492179
			14:leaf=-0.0342692547
booster[142]:
0:[age<37] yes=1,no=2,missing=1
	1:[education<0.817769289] yes=3,no=4,missing=3
		3:[age<23] yes=7,no=8,missing=7
			7:leaf=0.0526692867
			8:leaf=-8.88378927e-005
		4:[workclass<0.757541656] yes=9,no=10,missing=9
			9:leaf=-0.0167134013
			10:leaf=0.0255405102
	2:[sex<0.786973238] yes=5,no=6,missing=5
		5:[relationship<0.915993154] yes=11,no=12,missing=11
			11:leaf=-0.00444982946
			12:leaf=-0.0593845136
		6:[marital_status<0.729241133] yes=13,no=14,missing=13
			13:leaf=-0.0103359073
			14:leaf=0.0215882212
booster[143]:
0:[sex<0.786973238] yes=1,no=2,missing=1
	1:[age<82] yes=3,no=4,missing=3
		3:[capital_loss<1749] yes=7,no=8,missing=7
			7:leaf=-0.00152880652
			8:leaf=-0.0324582756
		4:[marital_status<0.90061444] yes=9,no=10,missing=9
			9:leaf=0.117866173
			10:leaf=0.0232668072
	2:[native_country<0.69044888] yes=5,no=6,missing=5
		5:[age<45] yes=11,no=12,missing=11
			11:leaf=-0.128296852
			12:leaf=-0.00322573516
		6:[marital_status<0.729241133] yes=13,no=14,missing=13
			13:leaf=-0.000895395351
			14:leaf=0.02540797
booster[144]:
0:[fnlwgt<343586] yes=1,no=2,missing=1
	1:[education<0.256201982] yes=3,no=4,missing=3
		3:[fnlwgt<205968] yes=7,no=8,missing=7
			7:leaf=-0.0494017415
			8:leaf=0.0112216277
		4:[fnlwgt<341641] yes=9,no=10,missing=9
			9:leaf=0.00294677005
			10:leaf=0.0794027969
	2:[fnlwgt<344715] yes=5,no=6,missing=5
		5:[hours_per_week<43] yes=11,no=12,missing=11
			11:leaf=-0.14355433
			12:leaf=-0.00559822423
		6:[education<0.938479185] yes=13,no=14,missing=13
			13:leaf=-0.0174464248
			14:leaf=0.0584908389
booster[145]:
0:[occupation<0.535411239] yes=1,no=2,missing=1
	1:[workclass<0.757541656] yes=3,no=4,missing=3
		3:[workclass<0.712930441] yes=7,no=8,missing=7
			7:leaf=-0.0166862365
			8:leaf=0.0369135253
		4:[age<28] yes=9,no=10,missing=9
			9:leaf=0.0376903377
			10:leaf=-0.0270954873
	2:[fnlwgt<20955] yes=5,no=6,missing=5
		5:[fnlwgt<20145] yes=11,no=12,missing=11
			11:leaf=-0.0210510399
			12:leaf=-0.174285993
		6:[fnlwgt<360772] yes=13,no=14,missing=13
			13:leaf=0.00313244085
			14:leaf=-0.0184547957
booster[146]:
0:[relationship<0.973544419] yes=1,no=2,missing=1
	1:[age<82] yes=3,no=4,missing=3
		3:[native_country<0.877639771] yes=7,no=8,missing=7
			7:leaf=-0.00177598023
			8:leaf=0.0305784922
		4:[fnlwgt<106988] yes=9,no=10,missing=9
			9:leaf=0.0210000128
			10:leaf=0.114789546
	2:[marital_status<0.720871687] yes=5,no=6,missing=5
		5:[hours_per_week<45] yes=11,no=12,missing=11
			11:leaf=-0.159401819
			12:leaf=0.0738482326
		6:[capital_loss<1535] yes=13,no=14,missing=13
			13:leaf=0.0518294387
			14:leaf=-0.0648780465
booster[147]:
0:[age<39] yes=1,no=2,missing=1
	1:[education<0.770847738] yes=3,no=4,missing=3
		3:[native_country<0.774720967] yes=7,no=8,missing=7
			7:leaf=-0.00609666808
			8:leaf=0.0567562059
		4:[native_country<0.745666862] yes=9,no=10,missing=9
			9:leaf=-0.0615076907
			10:leaf=0.0124974381
	2:[workclass<0.726903677] yes=5,no=6,missing=5
		5:[workclass<0.712930441] yes=11,no=12,missing=11
			11:leaf=-0.00625606207
			12:leaf=0.0202310663
		6:[occupation<0.535411239] yes=13,no=14,missing=13
			13:leaf=-0.0347314402
			14:leaf=-0.00567529211
booster[148]:
0:[capital_gain<4244] yes=1,no=2,missing=1
	1:[capital_gain<3121] yes=3,no=4,missing=3
		3:[capital_gain<3049] yes=7,no=8,missing=7
			7:leaf=0.00032224771
			8:leaf=-0.142875865
		4:leaf=0.127824977
	2:[capital_gain<4402] yes=5,no=6,missing=5
		5:[occupation<0.752935529] yes=9,no=10,missing=9
			9:leaf=-0.0908900648
			10:leaf=-0.180878997
		6:[capital_gain<4669] yes=11,no=12,missing=11
			11:leaf=0.107763112
			12:leaf=-0.0230781958
booster[149]:
0:[capital_gain<58] yes=1,no=2,missing=1
	1:[occupation<0.88044405] yes=3,no=4,missing=3
		3:[education<0.93306154] yes=7,no=8,missing=7
			7:leaf=-0.00256875111
			8:leaf=0.0245202519
		4:[capital_loss<1806] yes=9,no=10,missing=9
			9:leaf=0.0170063227
			10:leaf=-0.0443738997
	2:[capital_gain<3049] yes=5,no=6,missing=5
		5:leaf=0.126729697
		6:[capital_gain<3121] yes=11,no=12,missing=11
			11:leaf=-0.124903046
			12:leaf=0.0192317627
booster[150]:
0:[fnlwgt<244882] yes=1,no=2,missing=1
	1:[age<22] yes=3,no=4,missing=3
		3:leaf=0.0856966302
		4:[capital_loss<2219] yes=7,no=8,missing=7
			7:leaf=-0.00338168559
			8:leaf=-0.0593564101
	2:[age<65] yes=5,no=6,missing=5
		5:[age<44] yes=9,no=10,missing=9
			9:leaf=0.0146655841
			10:leaf=-0.00866589602
		6:[occupation<0.870321155] yes=11,no=12,missing=11
			11:leaf=0.0838160291
			12:leaf=-0.0622875504
booster[151]:
0:[workclass<0.657184601] yes=1,no=2,missing=1
	1:[fnlwgt<225648] yes=3,no=4,missing=3
		3:[occupation<0.784263313] yes=7,no=8,missing=7
			7:leaf=0.00106789579
			8:leaf=-0.0391481556
		4:[occupation<0.870321155] yes=9,no=10,missing=9
			9:leaf=-0.0400509946
			10:leaf=0.0824052617
	2:[fnlwgt<119849] yes=5,no=6,missing=5
		5:[race<0.72721839] yes=11,no=12,missing=11
			11:leaf=-0.0476067513
			12:leaf=0.00863101147
		6:[fnlwgt<242474] yes=13,no=14,missing=13
			13:leaf=-0.00752029335
			14:leaf=0.00722557632
booster[152]:
0:[capital_gain<58] yes=1,no=2,missing=1
	1:[education<0.51304394] yes=3,no=4,missing=3
		3:[occupation<0.535411239] yes=7,no=8,missing=7
			7:leaf=-0.04148544
			8:leaf=-0.00682417629
		4:[native_country<0.877639771] yes=9,no=10,missing=9
			9:leaf=0.00033378345
			10:leaf=0.0326305814
	2:[capital_gain<3049] yes=5,no=6,missing=5
		5:leaf=0.125445068
		6:[capital_gain<3121] yes=11,no=12,missing=11
			11:leaf=-0.115099899
			12:leaf=0.01445085
booster[153]:
0:[race<0.805075347] yes=1,no=2,missing=1
	1:[capital_gain<4244] yes=3,no=4,missing=3
		3:[capital_gain<3121] yes=7,no=8,missing=7
			7:leaf=9.11212464e-006
			8:leaf=0.120701432
		4:[capital_gain<4402] yes=9,no=10,missing=9
			9:leaf=-0.14249821
			10:leaf=0.00589168677
	2:[marital_status<0.903710306] yes=5,no=6,missing=5
		5:[hours_per_week<55] yes=11,no=12,missing=11
			11:leaf=0.0172688067
			12:leaf=-0.0316711701
		6:[education<0.73931253] yes=13,no=14,missing=13
			13:leaf=0.0174677204
			14:leaf=0.073668614
booster[154]:
0:[age<80] yes=1,no=2,missing=1
	1:[capital_gain<5120] yes=3,no=4,missing=3
		3:[capital_gain<4974] yes=7,no=8,missing=7
			7:leaf=0.0027757769
			8:leaf=0.145745263
		4:[relationship<0.71965611] yes=9,no=10,missing=9
			9:leaf=-0.0756614059
			10:leaf=0.0202150624
	2:[fnlwgt<87446] yes=5,no=6,missing=5
		5:leaf=0.0183213633
		6:leaf=0.103978477
booster[155]:
0:[race<0.875930011] yes=1,no=2,missing=1
	1:[capital_loss<1749] yes=3,no=4,missing=3
		3:[capital_loss<1569] yes=7,no=8,missing=7
			7:leaf=0.000911539828
			8:leaf=0.109419957
		4:[relationship<0.915993154] yes=9,no=10,missing=9
			9:leaf=-0.013131842
			10:leaf=-0.118102208
	2:[education<0.658042073] yes=5,no=6,missing=5
		5:[age<44] yes=11,no=12,missing=11
			11:leaf=-0.0605917238
			12:leaf=0.0248131249
		6:[education<0.817769289] yes=13,no=14,missing=13
			13:leaf=0.122264385
			14:leaf=0.0161667224
booster[156]:
0:[capital_gain<10586] yes=1,no=2,missing=1
	1:[capital_gain<10042] yes=3,no=4,missing=3
		3:[hours_per_week<86] yes=7,no=8,missing=7
			7:leaf=0.00109213067
			8:leaf=0.051173009
		4:leaf=0.139833927
	2:[capital_gain<30962] yes=5,no=6,missing=5
		5:leaf=-0.0926816091
		6:[education<0.817769289] yes=9,no=10,missing=9
			9:leaf=-0.0564720333
			10:leaf=0.0365158394
booster[157]:
0:[fnlwgt<88569] yes=1,no=2,missing=1
	1:[fnlwgt<37370] yes=3,no=4,missing=3
		3:[age<52] yes=7,no=8,missing=7
			7:leaf=-0.00228530471
			8:leaf=-0.041578766
		4:[age<63] yes=9,no=10,missing=9
			9:leaf=0.0252381023
			10:leaf=-0.0474788025
	2:[capital_gain<7074] yes=5,no=6,missing=5
		5:[capital_gain<6458] yes=11,no=12,missing=11
			11:leaf=-0.0014777747
			12:leaf=0.119585335
		6:[age<63] yes=13,no=14,missing=13
			13:leaf=-0.0710974485
			14:leaf=0.0347144417
booster[158]:
0:[capital_gain<5120] yes=1,no=2,missing=1
	1:[capital_gain<4974] yes=3,no=4,missing=3
		3:[capital_gain<4669] yes=7,no=8,missing=7
			7:leaf=0.000225103999
			8:leaf=-0.143135428
		4:leaf=0.139759883
	2:[marital_status<0.729241133] yes=5,no=6,missing=5
		5:[capital_gain<9977] yes=9,no=10,missing=9
			9:leaf=-0.0955335647
			10:leaf=0.0508428626
		6:[capital_gain<8297] yes=11,no=12,missing=11
			11:leaf=0.116343334
			12:leaf=-0.0754849166
booster[159]:
0:[hours_per_week<38] yes=1,no=2,missing=1
	1:[relationship<0.529179811] yes=3,no=4,missing=3
		3:[education<0.73931253] yes=7,no=8,missing=7
			7:leaf=-0.0578303635
			8:leaf=0.00108590489
		4:[education<0.356223524] yes=9,no=10,missing=9
			9:leaf=-0.035181094
			10:leaf=0.0301359333
	2:[sex<0.786973238] yes=5,no=6,missing=5
		5:[capital_loss<1979] yes=11,no=12,missing=11
			11:leaf=-0.00558459247
			12:leaf=0.0463865586
		6:[marital_status<0.729241133] yes=13,no=14,missing=13
			13:leaf=-0.00847202819
			14:leaf=0.0212372821
booster[160]:
0:[native_country<0.948202431] yes=1,no=2,missing=1
	1:[age<37] yes=3,no=4,missing=3
		3:[hours_per_week<56] yes=7,no=8,missing=7
			7:leaf=0.00871426985
			8:leaf=-0.0167689547
		4:[age<38] yes=9,no=10,missing=9
			9:leaf=-0.0240335241
			10:leaf=-0.00200492586
	2:[workclass<0.726903677] yes=5,no=6,missing=5
		5:leaf=-0.0215111617
		6:leaf=0.100045517
booster[161]:
0:[age<22] yes=1,no=2,missing=1
	1:[occupation<0.752935529] yes=3,no=4,missing=3
		3:leaf=0.0216519758
		4:leaf=0.0840476751
	2:[workclass<0.757541656] yes=5,no=6,missing=5
		5:[education<0.356223524] yes=7,no=8,missing=7
			7:leaf=-0.029602332
			8:leaf=0.00889635552
		6:[occupation<0.535411239] yes=9,no=10,missing=9
			9:leaf=-0.0183267947
			10:leaf=0.00140174443
booster[162]:
0:[age<22] yes=1,no=2,missing=1
	1:[hours_per_week<50] yes=3,no=4,missing=3
		3:leaf=0.0894379243
		4:leaf=0.00469136611
	2:[age<85] yes=5,no=6,missing=5
		5:[fnlwgt<360669] yes=7,no=8,missing=7
			7:leaf=0.00119919959
			8:leaf=-0.0143573834
		6:leaf=0.0964923128
booster[163]:
0:[capital_gain<58] yes=1,no=2,missing=1
	1:[fnlwgt<29317] yes=3,no=4,missing=3
		3:[occupation<0.88044405] yes=7,no=8,missing=7
			7:leaf=-0.0443236418
			8:leaf=0.0520774499
		4:[fnlwgt<365712] yes=9,no=10,missing=9
			9:leaf=-0.00133246719
			10:leaf=-0.0166377351
	2:[capital_gain<3049] yes=5,no=6,missing=5
		5:leaf=0.117234111
		6:[capital_gain<3121] yes=11,no=12,missing=11
			11:leaf=-0.123064332
			12:leaf=0.0147232041
booster[164]:
0:[capital_gain<4244] yes=1,no=2,missing=1
	1:[capital_gain<3121] yes=3,no=4,missing=3
		3:[capital_gain<3041] yes=7,no=8,missing=7
			7:leaf=0.00141860021
			8:leaf=-0.105970018
		4:leaf=0.119621456
	2:[capital_gain<4827] yes=5,no=6,missing=5
		5:[hours_per_week<54] yes=9,no=10,missing=9
			9:leaf=-0.106682874
			10:leaf=0.0348352157
		6:[capital_gain<5120] yes=11,no=12,missing=11
			11:leaf=0.0878645182
			12:leaf=-0.0277599487
booster[165]:
0:[relationship<0.973544419] yes=1,no=2,missing=1
	1:[capital_gain<7566] yes=3,no=4,missing=3
		3:[capital_gain<7437] yes=7,no=8,missing=7
			7:leaf=-0.00104783371
			8:leaf=0.16592598
		4:[capital_gain<10544] yes=9,no=10,missing=9
			9:leaf=-0.0913048089
			10:leaf=0.00108191499
	2:[marital_status<0.554130554] yes=5,no=6,missing=5
		5:[fnlwgt<198939] yes=11,no=12,missing=11
			11:leaf=0.00817294419
			12:leaf=-0.189891085
		6:[fnlwgt<225454] yes=13,no=14,missing=13
			13:leaf=0.0244788118
			14:leaf=0.0773871988
booster[166]:
0:[capital_loss<1882] yes=1,no=2,missing=1
	1:[capital_loss<1569] yes=3,no=4,missing=3
		3:[capital_loss<1535] yes=7,no=8,missing=7
			7:leaf=0.000506651762
			8:leaf=-0.150373653
		4:[capital_loss<1749] yes=9,no=10,missing=9
			9:leaf=0.102655962
			10:leaf=-0.00490700221
	2:[capital_loss<1979] yes=5,no=6,missing=5
		5:[capital_loss<1895] yes=11,no=12,missing=11
			11:leaf=-0.104570009
			12:leaf=-0.0467531905
		6:[capital_loss<2162] yes=13,no=14,missing=13
			13:leaf=0.123193659
			14:leaf=-0.0285276156
booster[167]:
0:[fnlwgt<526852] yes=1,no=2,missing=1
	1:[fnlwgt<456302] yes=3,no=4,missing=3
		3:[fnlwgt<83362] yes=7,no=8,missing=7
			7:leaf=0.011076346
			8:leaf=-0.000778988353
		4:[hours_per_week<33] yes=9,no=10,missing=9
			9:leaf=-0.0326190367
			10:leaf=0.0670225248
	2:[hours_per_week<38] yes=5,no=6,missing=5
		5:leaf=0.0479630083
		6:[fnlwgt<608987] yes=11,no=12,missing=11
			11:leaf=-0.0895542204
			12:leaf=-0.00398034742
booster[168]:
0:[capital_gain<7566] yes=1,no=2,missing=1
	1:[capital_gain<58] yes=3,no=4,missing=3
		3:[occupation<0.870321155] yes=7,no=8,missing=7
			7:leaf=-0.00178935507
			8:leaf=0.011529333
		4:[capital_gain<3041] yes=9,no=10,missing=9
			9:leaf=0.119521819
			10:leaf=0.00517112715
	2:[age<55] yes=5,no=6,missing=5
		5:[hours_per_week<36] yes=11,no=12,missing=11
			11:leaf=-0.0203460138
			12:leaf=-0.089324981
		6:[workclass<0.726903677] yes=13,no=14,missing=13
			13:leaf=0.035216853
			14:leaf=-0.0600521043
booster[169]:
0:[relationship<0.529179811] yes=1,no=2,missing=1
	1:[marital_status<0.554130554] yes=3,no=4,missing=3
		3:[hours_per_week<43] yes=7,no=8,missing=7
			7:leaf=-0.0188046955
			8:leaf=0.0149614131
		4:leaf=-0.1482241
	2:[hours_per_week<18] yes=5,no=6,missing=5
		5:[workclass<0.726903677] yes=9,no=10,missing=9
			9:leaf=-0.00686365971
			10:leaf=0.0615789257
		6:[hours_per_week<41] yes=11,no=12,missing=11
			11:leaf=0.00333991507
			12:leaf=-0.0039682365
booster[170]:
0:[hours_per_week<5] yes=1,no=2,missing=1
	1:leaf=0.0912868828
	2:[workclass<0.657184601] yes=3,no=4,missing=3
		3:[age<71] yes=5,no=6,missing=5
			5:leaf=-0.00873815082
			6:leaf=-0.0979500636
		4:[workclass<0.757541656] yes=7,no=8,missing=7
			7:leaf=0.0105215758
			8:leaf=-0.00202936283
booster[171]:
0:[native_country<0.948202431] yes=1,no=2,missing=1
	1:[hours_per_week<49] yes=3,no=4,missing=3
		3:[education<0.93306154] yes=7,no=8,missing=7
			7:leaf=0.000886782829
			8:leaf=0.0327885002
		4:[workclass<0.726903677] yes=9,no=10,missing=9
			9:leaf=0.00712664891
			10:leaf=-0.0141372448
	2:[hours_per_week<50] yes=5,no=6,missing=5
		5:leaf=0.0906872749
		6:leaf=0.0202057809
booster[172]:
0:[hours_per_week<90] yes=1,no=2,missing=1
	1:[age<22] yes=3,no=4,missing=3
		3:[fnlwgt<317053] yes=7,no=8,missing=7
			7:leaf=0.0844183639
			8:leaf=-0.00804520398
		4:[age<61] yes=9,no=10,missing=9
			9:leaf=-0.00131628651
			10:leaf=0.0123578403
	2:[occupation<0.838696718] yes=5,no=6,missing=5
		5:[age<44] yes=11,no=12,missing=11
			11:leaf=0.0330683328
			12:leaf=0.118364803
		6:[education<0.770847738] yes=13,no=14,missing=13
			13:leaf=0.0353857391
			14:leaf=-0.0818916187
booster[173]:
0:[workclass<0.657184601] yes=1,no=2,missing=1
	1:[hours_per_week<68] yes=3,no=4,missing=3
		3:[capital_gain<576] yes=7,no=8,missing=7
			7:leaf=-0.0168925915
			8:leaf=0.0445795171
		4:[occupation<0.535411239] yes=9,no=10,missing=9
			9:leaf=-0.00380956545
			10:leaf=0.0657982826
	2:[hours_per_week<80] yes=5,no=6,missing=5
		5:[age<60] yes=11,no=12,missing=11
			11:leaf=0.00184957054
			12:leaf=0.0170908831
		6:[occupation<0.698007107] yes=13,no=14,missing=13
			13:leaf=0.0487146303
			14:leaf=-0.0868986025
booster[174]:
0:[fnlwgt<27582] yes=1,no=2,missing=1
	1:[occupation<0.908900678] yes=3,no=4,missing=3
		3:[fnlwgt<23021] yes=7,no=8,missing=7
			7:leaf=0.0137962578
			8:leaf=-0.0634162053
		4:leaf=0.0728743449
	2:[fnlwgt<78477] yes=5,no=6,missing=5
		5:[occupation<0.752935529] yes=9,no=10,missing=9
			9:leaf=0.0225735754
			10:leaf=-0.00521316705
		6:[education_num<16] yes=11,no=12,missing=11
			11:leaf=-0.00193470367
			12:leaf=-0.0297984779
booster[175]:
0:[age<55] yes=1,no=2,missing=1
	1:[capital_gain<7566] yes=3,no=4,missing=3
		3:[age<45] yes=7,no=8,missing=7
			7:leaf=0.00172441627
			8:leaf=-0.00939161703
		4:[relationship<0.949930549] yes=9,no=10,missing=9
			9:leaf=-0.0892794132
			10:leaf=-0.0248893406
	2:[hours_per_week<66] yes=5,no=6,missing=5
		5:[marital_status<0.903710306] yes=11,no=12,missing=11
			11:leaf=0.00921015907
			12:leaf=-0.0238089934
		6:[fnlwgt<102561] yes=13,no=14,missing=13
			13:leaf=0.0147580868
			14:leaf=0.0979592502
booster[176]:
0:[capital_gain<5120] yes=1,no=2,missing=1
	1:[capital_gain<4974] yes=3,no=4,missing=3
		3:[capital_gain<4669] yes=7,no=8,missing=7
			7:leaf=0.00211410178
			8:leaf=-0.0967539772
		4:leaf=0.127835557
	2:[relationship<0.71965611] yes=5,no=6,missing=5
		5:[age<63] yes=9,no=10,missing=9
			9:leaf=-0.103725635
			10:leaf=0.00212921272
		6:[capital_gain<8297] yes=11,no=12,missing=11
			11:leaf=0.0989999175
			12:leaf=-0.0678888485
booster[177]:
0:[sex<0.786973238] yes=1,no=2,missing=1
	1:[relationship<0.71965611] yes=3,no=4,missing=3
		3:[capital_gain<5096] yes=7,no=8,missing=7
			7:leaf=0.0012589721
			8:leaf=-0.0714109242
		4:[marital_status<0.940908313] yes=9,no=10,missing=9
			9:leaf=-0.0293968227
			10:leaf=-0.000636238081
	2:[marital_status<0.729241133] yes=5,no=6,missing=5
		5:[fnlwgt<200840] yes=11,no=12,missing=11
			11:leaf=0.00449253106
			12:leaf=-0.0281658005
		6:[occupation<0.784263313] yes=13,no=14,missing=13
			13:leaf=0.00680232141
			14:leaf=0.0580481179
booster[178]:
0:[hours_per_week<42] yes=1,no=2,missing=1
	1:[fnlwgt<272648] yes=3,no=4,missing=3
		3:[native_country<0.774720967] yes=7,no=8,missing=7
			7:leaf=-0.00199329294
			8:leaf=0.0372644775
		4:[hours_per_week<36] yes=9,no=10,missing=9
			9:leaf=0.0493360236
			10:leaf=0.0150569072
	2:[occupation<0.784263313] yes=5,no=6,missing=5
		5:[fnlwgt<89594] yes=11,no=12,missing=11
			11:leaf=0.0166316312
			12:leaf=-0.00468952348
		6:[fnlwgt<391964] yes=13,no=14,missing=13
			13:leaf=-0.0161902122
			14:leaf=-0.0705375895
booster[179]:
0:[age<22] yes=1,no=2,missing=1
	1:leaf=0.0849278793
	2:[capital_gain<10586] yes=3,no=4,missing=3
		3:[capital_gain<58] yes=5,no=6,missing=5
			5:leaf=-0.00100298191
			6:leaf=0.0189380851
		4:[capital_gain<30962] yes=7,no=8,missing=7
			7:leaf=-0.0858313441
			8:leaf=-0.00730055571
booster[180]:
0:[fnlwgt<364430] yes=1,no=2,missing=1
	1:[fnlwgt<354092] yes=3,no=4,missing=3
		3:[fnlwgt<353242] yes=7,no=8,missing=7
			7:leaf=0.00189111126
			8:leaf=-0.0941530764
		4:[fnlwgt<357832] yes=9,no=10,missing=9
			9:leaf=0.0917625278
			10:leaf=-0.00134532677
	2:[fnlwgt<370138] yes=5,no=6,missing=5
		5:[marital_status<0.90061444] yes=11,no=12,missing=11
			11:leaf=-0.0877233595
			12:leaf=0.00467246259
		6:[hours_per_week<42] yes=13,no=14,missing=13
			13:leaf=0.00914285984
			14:leaf=-0.0331697166
booster[181]:
0:[age<45] yes=1,no=2,missing=1
	1:[marital_status<0.729241133] yes=3,no=4,missing=3
		3:[capital_loss<1990] yes=7,no=8,missing=7
			7:leaf=-0.000696861302
			8:leaf=0.113458656
		4:[occupation<0.784263313] yes=9,no=10,missing=9
			9:leaf=0.00340214791
			10:leaf=0.0401896052
	2:[relationship<0.915993154] yes=5,no=6,missing=5
		5:[fnlwgt<26719] yes=11,no=12,missing=11
			11:leaf=-0.0643336698
			12:leaf=-0.00181828369
		6:[sex<0.786973238] yes=13,no=14,missing=13
			13:leaf=-0.0748305246
			14:leaf=-0.00666920608
booster[182]:
0:[capital_loss<1749] yes=1,no=2,missing=1
	1:[capital_loss<1569] yes=3,no=4,missing=3
		3:[capital_loss<1552] yes=7,no=8,missing=7
			7:leaf=-0.000186650592
			8:leaf=-0.145141646
		4:leaf=0.103826761
	2:[capital_loss<1979] yes=5,no=6,missing=5
		5:[marital_status<0.720871687] yes=9,no=10,missing=9
			9:leaf=-0.0838928446
			10:leaf=0.0710728094
		6:[capital_loss<2219] yes=11,no=12,missing=11
			11:leaf=0.0963467881
			12:leaf=-0.0355420895
booster[183]:
0:[fnlwgt<143731] yes=1,no=2,missing=1
	1:[education<0.51304394] yes=3,no=4,missing=3
		3:[occupation<0.535411239] yes=7,no=8,missing=7
			7:leaf=-0.06818863
			8:leaf=0.00323003763
		4:[fnlwgt<48112] yes=9,no=10,missing=9
			9:leaf=-0.00650929287
			10:leaf=0.0112489602
	2:[fnlwgt<237871] yes=5,no=6,missing=5
		5:[native_country<0.69044888] yes=11,no=12,missing=11
			11:leaf=0.0497239865
			12:leaf=-0.00812051259
		6:[fnlwgt<349905] yes=13,no=14,missing=13
			13:leaf=0.0129451975
			14:leaf=-0.0106640393
booster[184]:
0:[hours_per_week<91] yes=1,no=2,missing=1
	1:[hours_per_week<78] yes=3,no=4,missing=3
		3:[hours_per_week<66] yes=7,no=8,missing=7
			7:leaf=-0.00115428725
			8:leaf=0.030121699
		4:[workclass<0.757541656] yes=9,no=10,missing=9
			9:leaf=-0.00102134934
			10:leaf=-0.0764675215
	2:[fnlwgt<284077] yes=5,no=6,missing=5
		5:[fnlwgt<116457] yes=11,no=12,missing=11
			11:leaf=0.0968958437
			12:leaf=0.0461313538
		6:leaf=-0.0331832282
booster[185]:
0:[education_num<10] yes=1,no=2,missing=1
	1:[fnlwgt<22332] yes=3,no=4,missing=3
		3:leaf=-0.162219808
		4:[marital_status<0.917541862] yes=7,no=8,missing=7
			7:leaf=0.00330565986
			8:leaf=0.0387541577
	2:[capital_gain<58] yes=5,no=6,missing=5
		5:[workclass<0.757541656] yes=9,no=10,missing=9
			9:leaf=0.00356787792
			10:leaf=-0.00861892756
		6:[capital_gain<4244] yes=11,no=12,missing=11
			11:leaf=0.0759220719
			12:leaf=-0.00197534938
booster[186]:
0:[capital_gain<4244] yes=1,no=2,missing=1
	1:[capital_gain<3121] yes=3,no=4,missing=3
		3:[capital_gain<3041] yes=7,no=8,missing=7
			7:leaf=-6.75309057e-005
			8:leaf=-0.108674966
		4:leaf=0.115412764
	2:[capital_gain<4974] yes=5,no=6,missing=5
		5:[capital_gain<4669] yes=9,no=10,missing=9
			9:leaf=-0.0323495567
			10:leaf=-0.129725054
		6:[capital_gain<5120] yes=11,no=12,missing=11
			11:leaf=0.121678233
			12:leaf=-0.0265130457
booster[187]:
0:[fnlwgt<580660] yes=1,no=2,missing=1
	1:[fnlwgt<467690] yes=3,no=4,missing=3
		3:[fnlwgt<373451] yes=7,no=8,missing=7
			7:leaf=0.000807152246
			8:leaf=-0.0186871551
		4:[fnlwgt<502535] yes=9,no=10,missing=9
			9:leaf=0.0782935247
			10:leaf=0.00894847419
	2:[fnlwgt<593717] yes=5,no=6,missing=5
		5:leaf=-0.1544099
		6:[hours_per_week<52] yes=11,no=12,missing=11
			11:leaf=0.0107538281
			12:leaf=-0.0870550647
booster[188]:
0:[capital_gain<58] yes=1,no=2,missing=1
	1:[fnlwgt<238966] yes=3,no=4,missing=3
		3:[fnlwgt<202726] yes=7,no=8,missing=7
			7:leaf=-0.000528370088
			8:leaf=-0.0213490054
		4:[occupation<0.784263313] yes=9,no=10,missing=9
			9:leaf=-0.00115017046
			10:leaf=0.021205293
	2:[capital_gain<3049] yes=5,no=6,missing=5
		5:leaf=0.11107105
		6:[capital_gain<3121] yes=11,no=12,missing=11
			11:leaf=-0.0954975411
			12:leaf=0.0132612651
booster[189]:
0:[native_country<0.774720967] yes=1,no=2,missing=1
	1:[education_num<4] yes=3,no=4,missing=3
		3:[fnlwgt<121701] yes=7,no=8,missing=7
			7:leaf=-0.0236818288
			8:leaf=0.0826326311
		4:[fnlwgt<146510] yes=9,no=10,missing=9
			9:leaf=0.00190137699
			10:leaf=-0.00562282884
	2:[education_num<6] yes=5,no=6,missing=5
		5:[fnlwgt<180091] yes=11,no=12,missing=11
			11:leaf=-0.230226681
			12:leaf=0.0256516822
		6:[hours_per_week<39] yes=13,no=14,missing=13
			13:leaf=-0.0238252953
			14:leaf=0.0419829227
booster[190]:
0:[native_country<0.591636658] yes=1,no=2,missing=1
	1:[marital_status<0.720871687] yes=3,no=4,missing=3
		3:[fnlwgt<205101] yes=7,no=8,missing=7
			7:leaf=0.0899263695
			8:leaf=-0.00249032653
		4:[education<0.51304394] yes=9,no=10,missing=9
			9:leaf=-0.0713143274
			10:leaf=0.0213540439
	2:[capital_loss<1979] yes=5,no=6,missing=5
		5:[capital_loss<1882] yes=11,no=12,missing=11
			11:leaf=-0.00216086954
			12:leaf=-0.0475200191
		6:[relationship<0.71965611] yes=13,no=14,missing=13
			13:leaf=0.0794762895
			14:leaf=-0.0218304917
booster[191]:
0:[age<45] yes=1,no=2,missing=1
	1:[hours_per_week<73] yes=3,no=4,missing=3
		3:[capital_loss<1447] yes=7,no=8,missing=7
			7:leaf=0.00464168191
			8:leaf=-0.0285340045
		4:[workclass<0.757541656] yes=9,no=10,missing=9
			9:leaf=0.0133439051
			10:leaf=-0.0749360994
	2:[sex<0.786973238] yes=5,no=6,missing=5
		5:[relationship<0.915993154] yes=11,no=12,missing=11
			11:leaf=-0.00604809821
			12:leaf=-0.0781746283
		6:[race<0.72721839] yes=13,no=14,missing=13
			13:leaf=-0.062643595
			14:leaf=0.012167085
booster[192]:
0:[race<0.805075347] yes=1,no=2,missing=1
	1:[relationship<0.529179811] yes=3,no=4,missing=3
		3:[hours_per_week<43] yes=7,no=8,missing=7
			7:leaf=-0.0195411295
			8:leaf=0.0230056178
		4:[sex<0.786973238] yes=9,no=10,missing=9
			9:leaf=-0.000980188837
			10:leaf=0.0140695646
	2:[hours_per_week<50] yes=5,no=6,missing=5
		5:[capital_gain<4244] yes=11,no=12,missing=11
			11:leaf=0.0267489012
			12:leaf=-0.0544367023
		6:[fnlwgt<218690] yes=13,no=14,missing=13
			13:leaf=0.019688135
			14:leaf=-0.0708306059
booster[193]:
0:[age<85] yes=1,no=2,missing=1
	1:[education<0.356223524] yes=3,no=4,missing=3
		3:[age<33] yes=5,no=6,missing=5
			5:leaf=0.0264285505
			6:leaf=-0.0267743804
		4:[capital_gain<4244] yes=7,no=8,missing=7
			7:leaf=0.00241062674
			8:leaf=-0.0209551118
	2:leaf=0.110870138
booster[194]:
0:[age<26] yes=1,no=2,missing=1
	1:[workclass<0.726903677] yes=3,no=4,missing=3
		3:[sex<0.786973238] yes=7,no=8,missing=7
			7:leaf=-0.102065764
			8:leaf=0.0499381423
		4:[fnlwgt<75762] yes=9,no=10,missing=9
			9:leaf=-0.0391424187
			10:leaf=0.0370459072
	2:[fnlwgt<90700] yes=5,no=6,missing=5
		5:[occupation<0.752935529] yes=11,no=12,missing=11
			11:leaf=0.0179442223
			12:leaf=-0.00497622741
		6:[fnlwgt<91042] yes=13,no=14,missing=13
			13:leaf=-0.140422449
			14:leaf=-0.00227725459
booster[195]:
0:[capital_gain<58] yes=1,no=2,missing=1
	1:[fnlwgt<236124] yes=3,no=4,missing=3
		3:[fnlwgt<235222] yes=7,no=8,missing=7
